{"learner":{"attributes":{"scikit_learn":"{\"_estimator_type\": \"regressor\"}"},"feature_names":["Last_5_Avg_FP","Opp_Def_Rank","Is_Home","Minutes_Avg"],"feature_types":["float","int","int","float"],"gradient_booster":{"model":{"gbtree_model_param":{"num_parallel_tree":"1","num_trees":"100"},"iteration_indptr":[0,1,2,3,4,5,6,7,8,9,10,11,12,13,14,15,16,17,18,19,20,21,22,23,24,25,26,27,28,29,30,31,32,33,34,35,36,37,38,39,40,41,42,43,44,45,46,47,48,49,50,51,52,53,54,55,56,57,58,59,60,61,62,63,64,65,66,67,68,69,70,71,72,73,74,75,76,77,78,79,80,81,82,83,84,85,86,87,88,89,90,91,92,93,94,95,96,97,98,99,100],"tree_info":[0,0,0,0,0,0,0,0,0,0,0,0,0,0,0,0,0,0,0,0,0,0,0,0,0,0,0,0,0,0,0,0,0,0,0,0,0,0,0,0,0,0,0,0,0,0,0,0,0,0,0,0,0,0,0,0,0,0,0,0,0,0,0,0,0,0,0,0,0,0,0,0,0,0,0,0,0,0,0,0,0,0,0,0,0,0,0,0,0,0,0,0,0,0,0,0,0,0,0,0],"trees":[{"base_weights":[-1.0810691E-6,-6.2721796E0,1.0059922E1,-1.1201273E1,-1.6830891E0,5.5139513E0,1.5266714E1,-1.4908295E1,-5.3638325E0,-6.7613077E0,2.3488553E0,1.9840318E0,9.470988E0,9.846959E0,1.7901464E1,-1.616278E1,-1.0809716E1,-7.1626687E0,-2.9661622E0,-9.717813E0,-5.5399885E0,-3.742552E-1,5.0024867E0,-1.7566359E-1,4.4050164E0,5.31706E0,1.224509E1,7.234467E0,1.1707713E1,1.4850081E1,5.6865077E0,-5.9781604E0,-1.4411189E1,-1.2503929E1,-6.238112E0,-8.746919E0,-4.5327296E0,-1.139972E0,-4.42519E0,-1.2541507E1,-6.4885817E0,-6.6245265E0,-1.2555734E0,-2.577931E0,2.6234426E0,2.6506195E0,6.5816817E0,-2.2735085E0,9.44306E-1,2.0347652E0,5.785372E0,2.8066926E0,6.808464E0,1.2886583E1,1.746209E0,3.905625E0,2.6248424E0,3.744099E0,2.0770502E0,4.6130204E0,1.548052E0,-4.369657E0,-1.7093072E0,-1.515699E0,-3.8743148E0,-3.0306263E0,-1.1482998E0,-1.405036E0,-2.7977853E0,-6.084079E-1,-1.9352943E0,-6.0834587E-1,8.7551194E-1,-1.6107297E0,-2.5677958E-1,-1.0051787E0,-3.8792586E0,-2.6151168E-1,-2.28898E0,-2.3935218E0,-1.7851815E0,9.304133E-1,-8.1658304E-1,-1.5263913E0,-3.423594E-1,9.132041E-1,-5.1698457E-2,3.4753487E-1,1.5775027E0,1.6657103E0,2.721387E0,2.8040162E-1,-8.2907325E-1,6.4399874E-1,-5.746633E-1,9.266065E-1,-3.3371603E-1,-3.9761927E-2,1.808217E0,3.947977E-1,1.5680264E0,8.985273E-1,2.4686499E0,3.1882658E0,4.5548115E0,1.4012982E0,-3.325988E-1],"categories":[],"categories_nodes":[],"categories_segments":[],"categories_sizes":[],"default_left":[0,0,0,0,0,0,0,0,0,0,0,0,0,0,0,0,0,0,0,0,0,0,0,0,0,0,0,0,0,0,0,0,0,0,0,0,0,0,0,0,0,0,0,0,0,0,0,0,0,0,0,0,0,0,0,0,0,0,0,0,0,0,0,0,0,0,0,0,0,0,0,0,0,0,0,0,0,0,0,0,0,0,0,0,0,0,0,0,0,0,0,0,0,0,0,0,0,0,0,0,0,0,0,0,0,0,0],"id":0,"left_children":[1,3,5,7,9,11,13,15,17,19,21,23,25,27,29,31,33,35,37,39,41,43,45,47,49,51,53,55,57,59,-1,-1,61,63,65,67,69,71,73,75,77,79,81,83,85,87,89,91,93,95,97,99,101,103,-1,105,-1,-1,-1,-1,-1,-1,-1,-1,-1,-1,-1,-1,-1,-1,-1,-1,-1,-1,-1,-1,-1,-1,-1,-1,-1,-1,-1,-1,-1,-1,-1,-1,-1,-1,-1,-1,-1,-1,-1,-1,-1,-1,-1,-1,-1,-1,-1,-1,-1,-1,-1],"loss_changes":[5.0604305E4,1.1155455E4,7.206158E3,5.07024E3,5.27798E3,2.299901E3,1.8657227E3,5.708164E2,3.8417798E2,3.5779932E2,1.0424352E3,4.6611823E2,8.3371875E2,1.5349951E2,2.3923828E1,4.3154102E2,2.0857422E2,1.8117627E2,1.0686282E2,2.1041089E2,3.7735107E2,4.8239175E2,2.5368042E2,1.1492397E2,1.2564325E2,1.0444183E2,1.1456641E2,8.182178E1,1.3394287E1,6.864697E1,0E0,0E0,2.190332E1,1.4273926E1,7.309943E1,3.1614502E1,9.261957E1,7.7981766E1,7.289261E1,1.3930176E1,1.0233307E2,1.2742676E1,1.2344202E2,1.456564E2,3.697499E1,1.1453458E2,5.9824097E1,2.9310936E1,1.1414591E2,5.982235E1,3.803717E1,4.3627846E1,8.368182E1,5.13125E1,0E0,3.9718582E1,0E0,0E0,0E0,0E0,0E0,0E0,0E0,0E0,0E0,0E0,0E0,0E0,0E0,0E0,0E0,0E0,0E0,0E0,0E0,0E0,0E0,0E0,0E0,0E0,0E0,0E0,0E0,0E0,0E0,0E0,0E0,0E0,0E0,0E0,0E0,0E0,0E0,0E0,0E0,0E0,0E0,0E0,0E0,0E0,0E0,0E0,0E0,0E0,0E0,0E0,0E0],"parents":[2147483647,0,0,1,1,2,2,3,3,4,4,5,5,6,6,7,7,8,8,9,9,10,10,11,11,12,12,13,13,14,14,15,15,16,16,17,17,18,18,19,19,20,20,21,21,22,22,23,23,24,24,25,25,26,26,27,27,28,28,29,29,32,32,33,33,34,34,35,35,36,36,37,37,38,38,39,39,40,40,41,41,42,42,43,43,44,44,45,45,46,46,47,47,48,48,49,49,50,50,51,51,52,52,53,53,55,55],"right_children":[2,4,6,8,10,12,14,16,18,20,22,24,26,28,30,32,34,36,38,40,42,44,46,48,50,52,54,56,58,60,-1,-1,62,64,66,68,70,72,74,76,78,80,82,84,86,88,90,92,94,96,98,100,102,104,-1,106,-1,-1,-1,-1,-1,-1,-1,-1,-1,-1,-1,-1,-1,-1,-1,-1,-1,-1,-1,-1,-1,-1,-1,-1,-1,-1,-1,-1,-1,-1,-1,-1,-1,-1,-1,-1,-1,-1,-1,-1,-1,-1,-1,-1,-1,-1,-1,-1,-1,-1,-1],"split_conditions":[3.4192886E1,2.1827791E1,2.04E2,2.21E2,1.57E2,4.3045113E1,4.0053177E1,1.58E2,3.05E2,2.521193E1,2.55E2,1.1E2,8E1,2.84E2,2.7E2,1.360503E1,1.7875816E1,1.6709759E1,1E0,8.1E1,1.26E2,2.8430012E1,2.6810604E1,3.717215E1,3.738035E1,4.603627E1,3.267311E1,3.5881763E1,3.1509892E1,2.9947268E1,5.6865077E0,-5.9781604E0,2.1668406E1,1.59E2,1.75E2,2.0847807E1,1E0,1.8108027E1,2.04134E1,8E0,2.2737896E1,2.5E1,1.34E2,2.01E2,2.46E2,3.26E2,3.44E2,3.4654488E1,3.1391155E1,2.8521406E1,1.5249813E1,6E1,2.3E1,1.51E2,1.746209E0,3.3743454E1,2.6248424E0,3.744099E0,2.0770502E0,4.6130204E0,1.548052E0,-4.369657E0,-1.7093072E0,-1.515699E0,-3.8743148E0,-3.0306263E0,-1.1482998E0,-1.405036E0,-2.7977853E0,-6.084079E-1,-1.9352943E0,-6.0834587E-1,8.7551194E-1,-1.6107297E0,-2.5677958E-1,-1.0051787E0,-3.8792586E0,-2.6151168E-1,-2.28898E0,-2.3935218E0,-1.7851815E0,9.304133E-1,-8.1658304E-1,-1.5263913E0,-3.423594E-1,9.132041E-1,-5.1698457E-2,3.4753487E-1,1.5775027E0,1.6657103E0,2.721387E0,2.8040162E-1,-8.2907325E-1,6.4399874E-1,-5.746633E-1,9.266065E-1,-3.3371603E-1,-3.9761927E-2,1.808217E0,3.947977E-1,1.5680264E0,8.985273E-1,2.4686499E0,3.1882658E0,4.5548115E0,1.4012982E0,-3.325988E-1],"split_indices":[0,0,1,1,1,0,0,1,1,0,1,1,1,1,1,0,0,0,2,1,1,0,0,0,0,0,3,0,3,3,0,0,0,1,1,3,2,0,0,1,0,1,1,1,1,1,1,0,3,3,3,1,1,1,0,3,0,0,0,0,0,0,0,0,0,0,0,0,0,0,0,0,0,0,0,0,0,0,0,0,0,0,0,0,0,0,0,0,0,0,0,0,0,0,0,0,0,0,0,0,0,0,0,0,0,0,0],"split_type":[0,0,0,0,0,0,0,0,0,0,0,0,0,0,0,0,0,0,0,0,0,0,0,0,0,0,0,0,0,0,0,0,0,0,0,0,0,0,0,0,0,0,0,0,0,0,0,0,0,0,0,0,0,0,0,0,0,0,0,0,0,0,0,0,0,0,0,0,0,0,0,0,0,0,0,0,0,0,0,0,0,0,0,0,0,0,0,0,0,0,0,0,0,0,0,0,0,0,0,0,0,0,0,0,0,0,0],"sum_hessian":[8E2,4.93E2,3.07E2,2.37E2,2.56E2,1.65E2,1.42E2,1.44E2,9.3E1,1.13E2,1.43E2,8.8E1,7.7E1,4.8E1,9.4E1,1.08E2,3.6E1,5.2E1,4.1E1,3.1E1,8.2E1,7.1E1,7.2E1,4.7E1,4.1E1,3.2E1,4.5E1,2.2E1,2.6E1,2.8E1,6.6E1,3.1E1,7.7E1,2.5E1,1.1E1,3.1E1,2.1E1,1.9E1,2.2E1,1.5E1,1.6E1,6.5E1,1.7E1,4.1E1,3E1,3E1,4.2E1,1.6E1,3.1E1,1.6E1,2.5E1,1.3E1,1.9E1,4E1,5E0,8E0,1.4E1,2.1E1,5E0,2.6E1,2E0,7.5E1,2E0,2E0,2.3E1,3E0,8E0,5E0,2.6E1,1E1,1.1E1,1.6E1,3E0,1.7E1,5E0,1E0,1.4E1,3E0,1.3E1,1.8E1,4.7E1,4E0,1.3E1,1.4E1,2.7E1,2.6E1,4E0,2E1,1E1,3.2E1,1E1,2E0,1.4E1,2.2E1,9E0,1.2E1,4E0,1E0,2.4E1,9E0,4E0,6E0,1.3E1,2.3E1,1.7E1,7E0,1E0],"tree_param":{"num_deleted":"0","num_feature":"4","num_nodes":"107","size_leaf_vector":"1"}},{"base_weights":[2.3659635E-3,-4.46374E0,7.1655283E0,-7.9668274E0,-1.2022673E0,3.9603765E0,1.0836085E1,-1.058495E1,-3.8434796E0,-4.780286E0,1.7290877E0,1.4099697E0,6.819682E0,7.01847E0,1.2632017E1,-1.2990967E1,-9.408161E0,-5.1411614E0,-2.1144173E0,-5.954154E0,-3.0536873E0,-1.5709406E-2,3.8558047E0,-1.6161242E0,2.4277337E0,3.8834562E0,8.777851E0,4.9904366E0,8.410998E0,3.477049E0,4.39182E0,-1.7039635E0,-4.013386E0,-3.008667E0,-5.483737E0,-5.7669854E0,-1.873419E0,-2.5736036E0,1.0696338E0,-7.681153E0,-4.2056785E0,-3.9702034E0,4.733866E-1,-3.3984277E0,1.3495227E0,2.8990643E0,6.139749E0,-1.9321626E0,1.1348534E0,-2.3430073E-1,3.200134E0,2.7916505E0,6.115444E0,6.8126416E0,1.0295433E1,3.2541394E0,6.430903E0,2.7709274E0,1.7201624E0,-2.342895E0,-8.4208643E-1,-1.8576063E0,-6.1292756E-1,3.2669348E-1,-1.2089541E0,-4.2574677E-1,-1.0156813E0,-8.594499E-1,7.288481E-1,-2.871681E0,-1.8434078E0,-7.001141E-2,-1.4084772E0,-1.0190245E0,-2.1571047E0,1.1791323E0,-3.9429417E-1,-1.6183529E0,-5.9226507E-1,-6.5731555E-2,7.251293E-1,2.1179883E-1,1.202459E0,2.0331547E0,2.0805666E-1,-3.3707514E-1,-1.2884694E0,9.062405E-2,4.2005998E-1,4.0863752E-1,-9.366094E-1,1.042467E0,-2.3264695E-2,1.2992675E0,2.6745045E-1,2.1233609E0,4.531487E-1,2.1821408E0,8.411036E-1,3.1981695E0,1.2557985E0,1.0363392E0,1.5758573E-1,2.0178738E0,5.2162117E-1],"categories":[],"categories_nodes":[],"categories_segments":[],"categories_sizes":[],"default_left":[0,0,0,0,0,0,0,0,0,0,0,0,0,0,0,0,0,0,0,0,0,0,0,0,0,0,0,0,0,0,0,0,0,0,0,0,0,0,0,0,0,0,0,0,0,0,0,0,0,0,0,0,0,0,0,0,0,0,0,0,0,0,0,0,0,0,0,0,0,0,0,0,0,0,0,0,0,0,0,0,0,0,0,0,0,0,0,0,0,0,0,0,0,0,0,0,0,0,0,0,0,0,0,0,0],"id":1,"left_children":[1,3,5,7,9,11,13,15,17,19,21,23,25,27,29,31,33,35,37,39,41,43,45,47,49,51,53,55,57,-1,-1,-1,-1,-1,59,61,63,65,67,69,71,73,75,77,79,81,83,85,87,89,91,93,95,97,99,101,103,-1,-1,-1,-1,-1,-1,-1,-1,-1,-1,-1,-1,-1,-1,-1,-1,-1,-1,-1,-1,-1,-1,-1,-1,-1,-1,-1,-1,-1,-1,-1,-1,-1,-1,-1,-1,-1,-1,-1,-1,-1,-1,-1,-1,-1,-1,-1,-1],"loss_changes":[2.5657133E4,5.6344814E3,3.5806104E3,2.52863E3,2.7037954E3,1.2009216E3,8.917754E2,2.8833008E2,2.0004395E2,2.1692627E2,5.269785E2,2.7803012E2,4.1438257E2,9.358179E1,3.1101562E1,5.133252E1,1.9104004E2,9.758276E1,6.415987E1,1.7302954E2,1.6027783E2,3.6942368E2,1.220495E2,2.2189255E1,1.3851227E2,6.334543E1,6.7049805E1,3.409668E1,6.703369E0,0E0,0E0,0E0,0E0,0E0,7.769406E1,5.699182E1,6.827037E1,2.9879562E1,3.9062035E1,3.7067017E1,6.886792E1,4.7593872E1,7.314779E1,5.4735443E1,9.5983376E1,1.11493164E2,5.778882E1,3.5293953E1,2.3994803E-1,7.801335E1,4.7098755E1,6.633391E1,3.3628113E1,2.212854E1,8.912842E0,4.7452927E0,3.548584E0,0E0,0E0,0E0,0E0,0E0,0E0,0E0,0E0,0E0,0E0,0E0,0E0,0E0,0E0,0E0,0E0,0E0,0E0,0E0,0E0,0E0,0E0,0E0,0E0,0E0,0E0,0E0,0E0,0E0,0E0,0E0,0E0,0E0,0E0,0E0,0E0,0E0,0E0,0E0,0E0,0E0,0E0,0E0,0E0,0E0,0E0,0E0,0E0],"parents":[2147483647,0,0,1,1,2,2,3,3,4,4,5,5,6,6,7,7,8,8,9,9,10,10,11,11,12,12,13,13,14,14,15,15,16,16,17,17,18,18,19,19,20,20,21,21,22,22,23,23,24,24,25,25,26,26,27,27,28,28,34,34,35,35,36,36,37,37,38,38,39,39,40,40,41,41,42,42,43,43,44,44,45,45,46,46,47,47,48,48,49,49,50,50,51,51,52,52,53,53,54,54,55,55,56,56],"right_children":[2,4,6,8,10,12,14,16,18,20,22,24,26,28,30,32,34,36,38,40,42,44,46,48,50,52,54,56,58,-1,-1,-1,-1,-1,60,62,64,66,68,70,72,74,76,78,80,82,84,86,88,90,92,94,96,98,100,102,104,-1,-1,-1,-1,-1,-1,-1,-1,-1,-1,-1,-1,-1,-1,-1,-1,-1,-1,-1,-1,-1,-1,-1,-1,-1,-1,-1,-1,-1,-1,-1,-1,-1,-1,-1,-1,-1,-1,-1,-1,-1,-1,-1,-1,-1,-1,-1,-1],"split_conditions":[3.4192886E1,2.1827791E1,2.04E2,2.21E2,1.63E2,4.3045113E1,3.9734035E1,1.360503E1,3.05E2,2.9679026E1,2.63E2,6.2E1,8E1,2.84E2,4.683586E1,1.6501032E1,1.75E2,1.9836432E1,3.5612057E1,8.3E1,1.26E2,2.521193E1,3.36E2,4.2997738E1,3.5881763E1,3.0039038E1,1.27E2,3.717215E1,2.9369997E1,3.477049E0,4.39182E0,-1.7039635E0,-4.013386E0,-3.008667E0,1.7875816E1,3.578688E1,1E0,1E0,1.1332454E1,2.4779469E1,1.6501032E1,3.4641777E1,1.34E2,2.3481388E1,2.8430012E1,2.2928812E1,2.6224642E1,3.271337E1,4.4E1,3.5366364E1,3.5248154E1,2.3336874E1,4.8868652E1,4.825114E1,1.94E2,2.7E2,2.63E2,2.7709274E0,1.7201624E0,-2.342895E0,-8.4208643E-1,-1.8576063E0,-6.1292756E-1,3.2669348E-1,-1.2089541E0,-4.2574677E-1,-1.0156813E0,-8.594499E-1,7.288481E-1,-2.871681E0,-1.8434078E0,-7.001141E-2,-1.4084772E0,-1.0190245E0,-2.1571047E0,1.1791323E0,-3.9429417E-1,-1.6183529E0,-5.9226507E-1,-6.5731555E-2,7.251293E-1,2.1179883E-1,1.202459E0,2.0331547E0,2.0805666E-1,-3.3707514E-1,-1.2884694E0,9.062405E-2,4.2005998E-1,4.0863752E-1,-9.366094E-1,1.042467E0,-2.3264695E-2,1.2992675E0,2.6745045E-1,2.1233609E0,4.531487E-1,2.1821408E0,8.411036E-1,3.1981695E0,1.2557985E0,1.0363392E0,1.5758573E-1,2.0178738E0,5.2162117E-1],"split_indices":[0,0,1,1,1,0,0,0,1,0,1,1,1,1,0,3,1,0,3,1,1,0,1,0,0,3,1,0,3,0,0,0,0,0,0,3,2,2,0,0,3,3,1,3,0,3,3,3,1,0,3,3,0,0,1,1,1,0,0,0,0,0,0,0,0,0,0,0,0,0,0,0,0,0,0,0,0,0,0,0,0,0,0,0,0,0,0,0,0,0,0,0,0,0,0,0,0,0,0,0,0,0,0,0,0],"split_type":[0,0,0,0,0,0,0,0,0,0,0,0,0,0,0,0,0,0,0,0,0,0,0,0,0,0,0,0,0,0,0,0,0,0,0,0,0,0,0,0,0,0,0,0,0,0,0,0,0,0,0,0,0,0,0,0,0,0,0,0,0,0,0,0,0,0,0,0,0,0,0,0,0,0,0,0,0,0,0,0,0,0,0,0,0,0,0,0,0,0,0,0,0,0,0,0,0,0,0,0,0,0,0,0,0],"sum_hessian":[8E2,4.93E2,3.07E2,2.37E2,2.56E2,1.65E2,1.42E2,1.44E2,9.3E1,1.15E2,1.41E2,8.8E1,7.7E1,4.7E1,9.5E1,4.4E1,1E2,5.2E1,4.1E1,6.7E1,4.8E1,7.8E1,6.3E1,2.2E1,6.6E1,3.2E1,4.5E1,2.1E1,2.6E1,6.7E1,2.8E1,3E0,4.1E1,8.5E1,1.5E1,4.3E1,9E0,3.6E1,5E0,3.2E1,3.5E1,3.8E1,1E1,2.2E1,5.6E1,4.6E1,1.7E1,2E1,2E0,1.5E1,5.1E1,2.3E1,9E0,2.2E1,2.3E1,1.1E1,1E1,1.8E1,8E0,7E0,8E0,3.8E1,5E0,4E0,5E0,1.6E1,2E1,1E0,4E0,1.2E1,2E1,4E0,3.1E1,3.4E1,4E0,3E0,7E0,8E0,1.4E1,2.3E1,3.3E1,1.6E1,3E1,1.5E1,2E0,1.6E1,4E0,1E0,1E0,1E1,5E0,4.7E1,4E0,1.2E1,1.1E1,7E0,2E0,1.9E1,3E0,2.1E1,2E0,1E1,1E0,9E0,1E0],"tree_param":{"num_deleted":"0","num_feature":"4","num_nodes":"105","size_leaf_vector":"1"}},{"base_weights":[6.3676895E-3,-3.171817E0,5.103825E0,-5.683139E0,-8.897692E-1,1.9900514E0,7.0807548E0,-8.238671E0,-3.5193782E0,-3.0156765E0,1.7752855E0,9.667415E-2,3.9133737E0,3.3792548E0,8.155136E0,-3.4717252E0,-7.38738E0,-4.4348173E0,-1.5175209E0,-4.0186214E0,-1.4856448E0,9.4525486E-1,3.4541576E0,-1.1797599E0,8.2820684E-1,2.40254E0,4.9980545E0,1.9127594E0,5.0434113E0,7.1791906E0,3.1612537E0,-9.16923E0,-6.728465E0,-5.3062177E0,-2.821689E0,-2.2951462E0,-2.3894568E-1,-5.3851542E0,-3.0403712E0,-2.844108E0,7.6430255E-1,-1.402092E-1,2.3860223E0,3.9805028E0,9.8280025E-1,-2.3194435E0,-2.8143147E-1,-1.8148665E0,1.4438547E0,2.9682636E0,-3.112671E0,4.1564484E0,1.9806792E0,2.7563922E0,-2.0130506E0,2.5867863E0,5.324769E0,6.1497397E0,8.490013E0,-2.870833E0,-1.7474586E-1,-7.830199E-1,-2.063517E0,-1.8372453E0,-1.2808695E0,-1.0069993E0,2.5365156E-1,-4.604497E-1,-1.3721162E0,-4.1145304E-1,4.7248003E-1,-2.076446E0,-1.2847966E0,-1.1334752E0,-5.740944E-1,5.3666157E-1,-9.479882E-1,-8.803534E-1,3.197452E-1,-7.3210555E-1,1.4557211E-1,-7.0530665E-1,8.2666713E-1,9.58206E-1,2.0175536E0,-4.4738862E-1,8.2965505E-1,-6.798344E-2,-1.310086E0,3.333411E-1,-6.970137E-1,4.0070745E-1,-7.3672783E-1,5.3500843E-1,-7.6369977E-1,1.1252686E0,1.2598214E-1,-1.2904398E0,-1.1026211E-1,1.5241044E0,7.5561804E-1,1.3457547E0,5.2966595E-1,-2.724781E-2,-7.4127007E-1,2.65234E-2,1.0170323E0,1.8851218E0,1.1322476E0,1.3745246E0,2.1182225E0,2.604147E0,4.4929504E-2],"categories":[],"categories_nodes":[],"categories_segments":[],"categories_sizes":[],"default_left":[0,0,0,0,0,0,0,0,0,0,0,0,0,0,0,0,0,0,0,0,0,0,0,0,0,0,0,0,0,0,0,0,0,0,0,0,0,0,0,0,0,0,0,0,0,0,0,0,0,0,0,0,0,0,0,0,0,0,0,0,0,0,0,0,0,0,0,0,0,0,0,0,0,0,0,0,0,0,0,0,0,0,0,0,0,0,0,0,0,0,0,0,0,0,0,0,0,0,0,0,0,0,0,0,0,0,0,0,0,0,0,0,0],"id":2,"left_children":[1,3,5,7,9,11,13,15,17,19,21,23,25,27,29,-1,31,33,35,37,39,41,43,45,47,49,51,53,55,57,-1,59,61,63,65,67,69,71,73,75,77,79,81,83,85,87,89,91,93,95,97,99,-1,101,103,105,107,109,111,-1,-1,-1,-1,-1,-1,-1,-1,-1,-1,-1,-1,-1,-1,-1,-1,-1,-1,-1,-1,-1,-1,-1,-1,-1,-1,-1,-1,-1,-1,-1,-1,-1,-1,-1,-1,-1,-1,-1,-1,-1,-1,-1,-1,-1,-1,-1,-1,-1,-1,-1,-1,-1,-1],"loss_changes":[1.2992918E4,2.8260361E3,1.8818682E3,1.2704517E3,1.478425E3,4.402523E2,7.20084E2,2.181748E2,2.2967273E2,2.1653772E2,1.5838275E2,5.886978E1,8.631824E1,9.773419E1,2.6148438E2,0E0,4.1625E1,1.08727295E2,4.121019E1,9.992981E1,1.8250554E2,1.23882744E2,4.5517853E1,2.2894867E1,6.7708496E1,9.348154E1,1.8461853E1,8.834732E1,4.977417E-2,9.082861E1,0E0,6.659302E1,2.4033447E1,2.1335693E1,6.757938E1,3.802333E1,3.708373E1,2.9640747E1,3.683319E1,5.9796265E1,2.8778332E1,6.736082E1,6.599544E1,4.543747E1,3.940909E1,4.1861336E1,4.2391315E1,1.9433493E1,4.923732E1,4.8284805E1,8.20923E0,2.503125E1,0E0,2.8065872E1,4.1760273E0,7.728266E0,1.5629883E0,5.7641357E1,6.859912E1,0E0,0E0,0E0,0E0,0E0,0E0,0E0,0E0,0E0,0E0,0E0,0E0,0E0,0E0,0E0,0E0,0E0,0E0,0E0,0E0,0E0,0E0,0E0,0E0,0E0,0E0,0E0,0E0,0E0,0E0,0E0,0E0,0E0,0E0,0E0,0E0,0E0,0E0,0E0,0E0,0E0,0E0,0E0,0E0,0E0,0E0,0E0,0E0,0E0,0E0,0E0,0E0,0E0,0E0],"parents":[2147483647,0,0,1,1,2,2,3,3,4,4,5,5,6,6,7,7,8,8,9,9,10,10,11,11,12,12,13,13,14,14,16,16,17,17,18,18,19,19,20,20,21,21,22,22,23,23,24,24,25,25,26,26,27,27,28,28,29,29,31,31,32,32,33,33,34,34,35,35,36,36,37,37,38,38,39,39,40,40,41,41,42,42,43,43,44,44,45,45,46,46,47,47,48,48,49,49,50,50,51,51,53,53,54,54,55,55,56,56,57,57,58,58],"right_children":[2,4,6,8,10,12,14,16,18,20,22,24,26,28,30,-1,32,34,36,38,40,42,44,46,48,50,52,54,56,58,-1,60,62,64,66,68,70,72,74,76,78,80,82,84,86,88,90,92,94,96,98,100,-1,102,104,106,108,110,112,-1,-1,-1,-1,-1,-1,-1,-1,-1,-1,-1,-1,-1,-1,-1,-1,-1,-1,-1,-1,-1,-1,-1,-1,-1,-1,-1,-1,-1,-1,-1,-1,-1,-1,-1,-1,-1,-1,-1,-1,-1,-1,-1,-1,-1,-1,-1,-1,-1,-1,-1,-1,-1,-1],"split_conditions":[3.4192886E1,2.1668406E1,1.53E2,1.58E2,1.96E2,4.3045113E1,3.7831985E1,1.166038E1,3.05E2,2.9793564E1,2.9221088E1,6.2E1,6E1,2.67E2,3.21E2,-3.4717252E0,4.8E1,1.674958E1,1.7397326E1,8.3E1,1.26E2,2.93E2,3.2890434E1,2.781938E1,3.5881763E1,5.5E1,4.8025265E1,3.3743454E1,1.786049E1,4.526996E1,3.1612537E0,3.4641777E1,1.2490704E1,2.28E2,2.79E2,3.263756E1,3.0755836E1,2.4779469E1,2.633298E1,2.9884998E1,2.9884998E1,2.3366774E1,2.2099985E1,3.2568108E1,3.3358604E1,2.2624939E1,3.271337E1,3.4365326E1,3.5248154E1,4.8483395E1,4.419587E1,2.6673592E1,1.9806792E0,3.5271572E1,1.79E2,3.41E2,2.9369997E1,2.21E2,3.14E2,-2.870833E0,-1.7474586E-1,-7.830199E-1,-2.063517E0,-1.8372453E0,-1.2808695E0,-1.0069993E0,2.5365156E-1,-4.604497E-1,-1.3721162E0,-4.1145304E-1,4.7248003E-1,-2.076446E0,-1.2847966E0,-1.1334752E0,-5.740944E-1,5.3666157E-1,-9.479882E-1,-8.803534E-1,3.197452E-1,-7.3210555E-1,1.4557211E-1,-7.0530665E-1,8.2666713E-1,9.58206E-1,2.0175536E0,-4.4738862E-1,8.2965505E-1,-6.798344E-2,-1.310086E0,3.333411E-1,-6.970137E-1,4.0070745E-1,-7.3672783E-1,5.3500843E-1,-7.6369977E-1,1.1252686E0,1.2598214E-1,-1.2904398E0,-1.1026211E-1,1.5241044E0,7.5561804E-1,1.3457547E0,5.2966595E-1,-2.724781E-2,-7.4127007E-1,2.65234E-2,1.0170323E0,1.8851218E0,1.1322476E0,1.3745246E0,2.1182225E0,2.604147E0,4.4929504E-2],"split_indices":[0,0,1,1,1,0,0,0,1,0,0,1,1,1,1,0,1,0,0,1,1,1,0,3,0,1,0,3,3,0,0,3,0,1,1,3,3,0,0,0,0,0,0,0,0,3,3,0,3,0,0,3,0,0,1,1,3,1,1,0,0,0,0,0,0,0,0,0,0,0,0,0,0,0,0,0,0,0,0,0,0,0,0,0,0,0,0,0,0,0,0,0,0,0,0,0,0,0,0,0,0,0,0,0,0,0,0,0,0,0,0,0,0],"split_type":[0,0,0,0,0,0,0,0,0,0,0,0,0,0,0,0,0,0,0,0,0,0,0,0,0,0,0,0,0,0,0,0,0,0,0,0,0,0,0,0,0,0,0,0,0,0,0,0,0,0,0,0,0,0,0,0,0,0,0,0,0,0,0,0,0,0,0,0,0,0,0,0,0,0,0,0,0,0,0,0,0,0,0,0,0,0,0,0,0,0,0,0,0,0,0,0,0,0,0,0,0,0,0,0,0,0,0,0,0,0,0,0,0],"sum_hessian":[8E2,4.93E2,3.07E2,2.34E2,2.59E2,1.2E2,1.87E2,1.06E2,1.28E2,1.44E2,1.15E2,6.1E1,5.9E1,4.3E1,1.44E2,1.9E1,8.7E1,8.7E1,4.1E1,8.6E1,5.8E1,7.8E1,3.7E1,2.2E1,3.9E1,2.6E1,3.3E1,2.4E1,1.9E1,1.05E2,3.9E1,2E1,6.7E1,5.5E1,3.2E1,2.5E1,1.6E1,3.4E1,5.2E1,3.6E1,2.2E1,4.5E1,3.3E1,3E1,7E0,9E0,1.3E1,7E0,3.2E1,2.4E1,2E0,2.4E1,9E0,2E1,4E0,3E0,1.6E1,6.2E1,4.3E1,1.9E1,1E0,3E0,6.4E1,2.8E1,2.7E1,2.8E1,4E0,2E1,5E0,1E1,6E0,1.2E1,2.2E1,3E1,2.2E1,2E0,3.4E1,1E0,2.1E1,9E0,3.6E1,2E0,3.1E1,2.5E1,5E0,3E0,4E0,5E0,4E0,8E0,5E0,1E0,6E0,3E1,2E0,1.8E1,6E0,1E0,1E0,1.4E1,1E1,6E0,1.4E1,1E0,3E0,1E0,2E0,8E0,8E0,2.5E1,3.7E1,4.2E1,1E0],"tree_param":{"num_deleted":"0","num_feature":"4","num_nodes":"113","size_leaf_vector":"1"}},{"base_weights":[2.1111742E-3,-2.2570224E0,3.62552E0,-4.042056E0,-6.349459E-1,1.4079497E0,5.033501E0,-5.854583E0,-2.5073087E0,-2.138066E0,1.3088578E0,-2.949384E-2,2.7763152E0,3.1408613E0,6.104521E0,-2.5434144E0,-5.2648387E0,-3.1483655E0,-1.1044444E0,-2.858964E0,-1.045115E0,8.68439E-1,3.6095111E0,-1.1616545E0,5.656278E-1,1.6822177E0,3.6868186E0,2.2959998E0,4.879832E0,5.3044086E0,7.670433E0,-5.395823E0,-1.9589427E0,-3.7700326E0,-1.9980103E0,-1.6959782E-1,-1.869335E0,-5.9467278E0,-2.5187037E0,-2.0019925E0,4.7361746E-1,-1.3003768E-1,1.5714058E0,3.9885979E0,1.15363315E-1,-6.38952E-1,-2.7065117E0,-1.3124084E0,1.003769E0,-3.7404284E-1,2.8923707E0,4.9625778E-1,4.3774524E0,1.1911975E0,3.2275095E0,5.440402E0,8.7042266E-1,4.086993E0,6.001815E0,6.225715E0,2.9107196E0,-1.7258734E0,-1.0824178E0,-1.2840632E0,1.0989193E0,-9.3230027E-1,-1.5320319E0,-2.8650286E-3,-8.2298553E-1,-2.3586755E-1,4.2007104E-1,-8.35917E-1,-1.8468112E-1,-6.553745E-1,-2.3301299E0,-6.944853E-1,-1.4039365E0,-4.5947587E-1,-1.4118824E0,8.418855E-1,2.0239968E-3,-2.6150936E-1,4.0877128E-1,5.609684E-1,-3.8321963E-1,3.8238975E-1,1.3550547E0,-3.9295718E-1,8.785675E-1,-1.1011952E0,1.7250653E-1,-7.2298706E-1,1.16288714E-1,3.796837E-1,-6.109598E-1,4.2056102E-1,-4.311699E-1,9.7217613E-1,-5.063284E-1,-1.9361849E-1,6.700779E-1,2.435475E0,1.0714777E0,-6.8126515E-2,5.0297266E-1,1.0386907E0,-3.9634612E-1,5.484177E-1,1.7477628E0,1.4122523E0,1.5302792E-1,1.8835708E0,6.7659235E-1,1.9626669E0,5.1717687E-1],"categories":[],"categories_nodes":[],"categories_segments":[],"categories_sizes":[],"default_left":[0,0,0,0,0,0,0,0,0,0,0,0,0,0,0,0,0,0,0,0,0,0,0,0,0,0,0,0,0,0,0,0,0,0,0,0,0,0,0,0,0,0,0,0,0,0,0,0,0,0,0,0,0,0,0,0,0,0,0,0,0,0,0,0,0,0,0,0,0,0,0,0,0,0,0,0,0,0,0,0,0,0,0,0,0,0,0,0,0,0,0,0,0,0,0,0,0,0,0,0,0,0,0,0,0,0,0,0,0,0,0,0,0,0,0],"id":3,"left_children":[1,3,5,7,9,11,13,15,17,19,21,23,25,27,29,-1,31,33,35,37,39,41,43,45,47,49,51,53,55,57,59,61,63,65,67,69,71,73,75,77,79,81,83,85,-1,87,89,91,93,95,97,99,101,103,105,107,-1,109,111,113,-1,-1,-1,-1,-1,-1,-1,-1,-1,-1,-1,-1,-1,-1,-1,-1,-1,-1,-1,-1,-1,-1,-1,-1,-1,-1,-1,-1,-1,-1,-1,-1,-1,-1,-1,-1,-1,-1,-1,-1,-1,-1,-1,-1,-1,-1,-1,-1,-1,-1,-1,-1,-1,-1,-1],"loss_changes":[6.5649805E3,1.4277915E3,9.5458057E2,6.390364E2,7.6245874E2,2.380826E2,3.619131E2,1.20911865E2,1.1253461E2,1.1283423E2,1.1237598E2,4.108346E1,5.5561096E1,9.16391E1,1.0840869E2,0E0,2.8401611E1,5.5399475E1,2.9715294E1,7.747858E1,8.8142624E1,6.8288246E1,2.0471954E1,1.5228184E1,3.4231163E1,7.5733574E1,7.054346E1,4.6582977E1,8.614197E0,4.5091064E1,5.114917E1,3.4144775E1,8.0929596E1,3.371289E1,4.8878113E1,2.046096E1,2.4728706E1,3.782019E1,2.4833008E1,3.9860046E1,2.6118372E1,4.6575085E1,5.0857758E1,1.7181183E1,0E0,4.452484E1,1.792997E1,1.5861153E1,2.8848171E1,2.467241E1,3.5772003E1,1.5325583E1,5.239801E1,1.6902447E1,3.234204E1,1.1629364E1,0E0,7.0842896E1,3.7683105E1,2.4342957E1,0E0,0E0,0E0,0E0,0E0,0E0,0E0,0E0,0E0,0E0,0E0,0E0,0E0,0E0,0E0,0E0,0E0,0E0,0E0,0E0,0E0,0E0,0E0,0E0,0E0,0E0,0E0,0E0,0E0,0E0,0E0,0E0,0E0,0E0,0E0,0E0,0E0,0E0,0E0,0E0,0E0,0E0,0E0,0E0,0E0,0E0,0E0,0E0,0E0,0E0,0E0,0E0,0E0,0E0,0E0],"parents":[2147483647,0,0,1,1,2,2,3,3,4,4,5,5,6,6,7,7,8,8,9,9,10,10,11,11,12,12,13,13,14,14,16,16,17,17,18,18,19,19,20,20,21,21,22,22,23,23,24,24,25,25,26,26,27,27,28,28,29,29,30,30,31,31,32,32,33,33,34,34,35,35,36,36,37,37,38,38,39,39,40,40,41,41,42,42,43,43,45,45,46,46,47,47,48,48,49,49,50,50,51,51,52,52,53,53,54,54,55,55,57,57,58,58,59,59],"right_children":[2,4,6,8,10,12,14,16,18,20,22,24,26,28,30,-1,32,34,36,38,40,42,44,46,48,50,52,54,56,58,60,62,64,66,68,70,72,74,76,78,80,82,84,86,-1,88,90,92,94,96,98,100,102,104,106,108,-1,110,112,114,-1,-1,-1,-1,-1,-1,-1,-1,-1,-1,-1,-1,-1,-1,-1,-1,-1,-1,-1,-1,-1,-1,-1,-1,-1,-1,-1,-1,-1,-1,-1,-1,-1,-1,-1,-1,-1,-1,-1,-1,-1,-1,-1,-1,-1,-1,-1,-1,-1,-1,-1,-1,-1,-1,-1],"split_conditions":[3.4192886E1,2.1668406E1,1.53E2,1.58E2,2.01E2,4.2997738E1,4.048872E1,1.1475411E1,3.05E2,2.9793564E1,3.36E2,6.2E1,4.6274757E1,3.08E2,4.706917E1,-2.5434144E0,2.0981031E1,1.674958E1,1E0,1.6E1,1.26E2,2.5925991E1,2.6224642E1,3.271337E1,3.5881763E1,6E1,2.3E1,1E0,2.9741241E1,2.62E2,2.9E2,3.2330906E1,1E0,1.4784795E1,1.8238987E1,1.7397326E1,3.0755836E1,8E0,3.6608047E1,3.4641777E1,1.34E2,3.03E2,3.11E2,1.6762495E1,1.15363315E-1,3.1895588E1,4.0053177E1,1.02E2,3.5248154E1,4.3768375E1,4.6151413E1,2.7293907E1,4.706917E1,3.5688534E1,4.0131752E1,3.455812E1,8.7042266E-1,2.52E2,3.59E2,4.966759E1,2.9107196E0,-1.7258734E0,-1.0824178E0,-1.2840632E0,1.0989193E0,-9.3230027E-1,-1.5320319E0,-2.8650286E-3,-8.2298553E-1,-2.3586755E-1,4.2007104E-1,-8.35917E-1,-1.8468112E-1,-6.553745E-1,-2.3301299E0,-6.944853E-1,-1.4039365E0,-4.5947587E-1,-1.4118824E0,8.418855E-1,2.0239968E-3,-2.6150936E-1,4.0877128E-1,5.609684E-1,-3.8321963E-1,3.8238975E-1,1.3550547E0,-3.9295718E-1,8.785675E-1,-1.1011952E0,1.7250653E-1,-7.2298706E-1,1.16288714E-1,3.796837E-1,-6.109598E-1,4.2056102E-1,-4.311699E-1,9.7217613E-1,-5.063284E-1,-1.9361849E-1,6.700779E-1,2.435475E0,1.0714777E0,-6.8126515E-2,5.0297266E-1,1.0386907E0,-3.9634612E-1,5.484177E-1,1.7477628E0,1.4122523E0,1.5302792E-1,1.8835708E0,6.7659235E-1,1.9626669E0,5.1717687E-1],"split_indices":[0,0,1,1,1,0,0,0,1,0,1,1,0,1,0,0,0,0,2,1,1,0,3,3,0,1,1,2,3,1,1,3,2,0,0,0,3,1,3,3,1,1,1,3,0,3,0,1,3,0,0,3,0,0,0,0,0,1,1,0,0,0,0,0,0,0,0,0,0,0,0,0,0,0,0,0,0,0,0,0,0,0,0,0,0,0,0,0,0,0,0,0,0,0,0,0,0,0,0,0,0,0,0,0,0,0,0,0,0,0,0,0,0,0,0],"split_type":[0,0,0,0,0,0,0,0,0,0,0,0,0,0,0,0,0,0,0,0,0,0,0,0,0,0,0,0,0,0,0,0,0,0,0,0,0,0,0,0,0,0,0,0,0,0,0,0,0,0,0,0,0,0,0,0,0,0,0,0,0,0,0,0,0,0,0,0,0,0,0,0,0,0,0,0,0,0,0,0,0,0,0,0,0,0,0,0,0,0,0,0,0,0,0,0,0,0,0,0,0,0,0,0,0,0,0,0,0,0,0,0,0,0,0],"sum_hessian":[8E2,4.93E2,3.07E2,2.34E2,2.59E2,1.2E2,1.87E2,1.06E2,1.28E2,1.46E2,1.13E2,5.9E1,6.1E1,6.9E1,1.18E2,1.7E1,8.9E1,8.7E1,4.1E1,8.7E1,5.9E1,9.6E1,1.7E1,2E1,3.9E1,2.9E1,3.2E1,4.8E1,2.1E1,8.1E1,3.7E1,8.5E1,4E0,5.5E1,3.2E1,1.9E1,2.2E1,7E0,8E1,3.6E1,2.3E1,4E1,5.6E1,1.5E1,2E0,1.6E1,4E0,7E0,3.2E1,1.1E1,1.8E1,6E0,2.6E1,2.3E1,2.5E1,1.5E1,6E0,3.2E1,4.9E1,2.4E1,1.3E1,6.9E1,1.6E1,3E0,1E0,3.9E1,1.6E1,9E0,2.3E1,1.4E1,5E0,1.2E1,1E1,3E0,4E0,7.5E1,5E0,3.2E1,4E0,3E0,2E1,2.7E1,1.3E1,5.1E1,5E0,3E0,1.2E1,1.4E1,2E0,3E0,1E0,4E0,3E0,3E1,2E0,4E0,7E0,1.7E1,1E0,4E0,2E0,3E0,2.3E1,6E0,1.7E1,2.4E1,1E0,2E0,1.3E1,2.7E1,5E0,4.5E1,4E0,2.2E1,2E0],"tree_param":{"num_deleted":"0","num_feature":"4","num_nodes":"115","size_leaf_vector":"1"}},{"base_weights":[5.6231767E-3,-1.748934E0,2.4019487E0,-2.7359397E0,-2.3746382E-1,1.0606728E0,3.7290957E0,-3.7037904E0,-1.2727994E0,-1.7703235E0,6.9764614E-1,2.5321716E-1,2.6569757E0,2.3645196E0,4.572341E0,-6.2780914E0,-3.3723917E0,-3.3661706E0,-8.6703396E-1,-2.2340598E0,-3.0652606E-1,1.9780408E0,3.0137306E-1,-6.135235E-1,8.4856415E-1,1.0629022E0,3.103795E0,7.039363E-1,2.7512538E0,4.032733E0,5.7689486E0,-2.8851986E-1,-1.9602737E0,-4.257556E0,-2.7584543E0,-3.739724E0,4.4763538E-1,-1.4800297E0,1.504464E-1,-1.3826816E-1,-2.6035724E0,4.3774834E-1,-9.062771E-1,-7.271935E-1,2.4801333E0,5.533574E-2,2.785584E0,1.5695349E0,-8.5432976E-1,-2.9341352E-1,1.330501E0,2.5627472E0,-2.1493683E0,3.987808E0,1.9456949E0,1.5197914E0,-1.7156491E0,2.2326756E0,3.7485907E0,3.4421875E0,5.2182193E0,6.401379E0,3.2295923E0,-1.5977119E0,-9.8522896E-1,-1.6840062E0,-7.7974516E-1,-7.283291E-1,-1.4736626E0,-6.913832E-1,-2.0595072E-1,4.0042105E-1,-4.4620678E-1,5.447125E-1,-6.193773E-1,-9.832511E-1,-4.526553E-1,6.0669243E-1,-1.6702871E-1,5.7578003E-1,-5.605876E-1,8.46564E-1,-7.5574356E-1,7.5622004E-1,-6.2513344E-2,-1.419591E-1,1.4506477E0,4.6581206E-1,-3.762609E-1,7.904915E-1,-1.7147441E-1,7.269908E-1,2.4277504E-1,1.2463384E-1,1.7039512E0,-9.467005E-1,2.8137475E-1,5.2820504E-1,1.3897102E0,2.524793E-1,1.0903959E0,-1.3094468E-1,8.10005E-1,-7.82775E-1,1.4477292E-1,1.3818518E0,5.200421E-1,1.3942544E0,3.977932E-1,1.8934869E0,9.035388E-1,1.7921306E0,1.0915886E0,2.0353758E0,8.655004E-1,-5.015093E-1,1.2505772E0],"categories":[],"categories_nodes":[],"categories_segments":[],"categories_sizes":[],"default_left":[0,0,0,0,0,0,0,0,0,0,0,0,0,0,0,0,0,0,0,0,0,0,0,0,0,0,0,0,0,0,0,0,0,0,0,0,0,0,0,0,0,0,0,0,0,0,0,0,0,0,0,0,0,0,0,0,0,0,0,0,0,0,0,0,0,0,0,0,0,0,0,0,0,0,0,0,0,0,0,0,0,0,0,0,0,0,0,0,0,0,0,0,0,0,0,0,0,0,0,0,0,0,0,0,0,0,0,0,0,0,0,0,0,0,0,0,0],"id":4,"left_children":[1,3,5,7,9,11,13,15,17,19,21,23,25,27,29,31,33,35,37,39,41,43,45,47,49,51,53,55,57,59,61,-1,-1,63,65,67,-1,69,71,73,75,77,-1,79,81,83,85,-1,87,89,91,93,95,97,99,101,103,105,107,109,111,113,115,-1,-1,-1,-1,-1,-1,-1,-1,-1,-1,-1,-1,-1,-1,-1,-1,-1,-1,-1,-1,-1,-1,-1,-1,-1,-1,-1,-1,-1,-1,-1,-1,-1,-1,-1,-1,-1,-1,-1,-1,-1,-1,-1,-1,-1,-1,-1,-1,-1,-1,-1,-1,-1,-1],"loss_changes":[3.3719976E3,6.9006714E2,5.994888E2,3.9179443E2,2.6497928E2,2.1844765E2,1.8480273E2,1.22151855E2,9.306561E1,4.6832336E1,5.7753242E1,5.9345913E1,3.7299988E1,4.1091003E1,4.388794E1,1.8228394E1,7.031445E1,3.824704E1,6.0098923E1,4.0684357E1,3.7687023E1,3.847705E1,5.4243423E1,7.062623E1,3.781494E1,7.295899E1,3.728705E1,3.024386E1,1.9559265E1,3.454419E1,2.7505188E1,0E0,0E0,4.489795E1,2.7251343E1,1.4224625E1,0E0,3.767752E1,7.375166E1,3.76246E1,2.8254211E1,2.4763866E1,0E0,1.8690159E1,4.6403915E1,5.3838287E1,5.5729748E1,0E0,4.6222843E1,1.8612335E1,2.5380882E1,6.457365E1,1.8493423E1,2.6296204E1,3.6101334E1,2.6575788E1,9.116505E0,3.703978E1,3.0859177E1,4.644464E1,5.713257E0,1.1418945E1,4.378704E1,0E0,0E0,0E0,0E0,0E0,0E0,0E0,0E0,0E0,0E0,0E0,0E0,0E0,0E0,0E0,0E0,0E0,0E0,0E0,0E0,0E0,0E0,0E0,0E0,0E0,0E0,0E0,0E0,0E0,0E0,0E0,0E0,0E0,0E0,0E0,0E0,0E0,0E0,0E0,0E0,0E0,0E0,0E0,0E0,0E0,0E0,0E0,0E0,0E0,0E0,0E0,0E0,0E0,0E0],"parents":[2147483647,0,0,1,1,2,2,3,3,4,4,5,5,6,6,7,7,8,8,9,9,10,10,11,11,12,12,13,13,14,14,15,15,16,16,17,17,18,18,19,19,20,20,21,21,22,22,23,23,24,24,25,25,26,26,27,27,28,28,29,29,30,30,33,33,34,34,35,35,37,37,38,38,39,39,40,40,41,41,43,43,44,44,45,45,46,46,48,48,49,49,50,50,51,51,52,52,53,53,54,54,55,55,56,56,57,57,58,58,59,59,60,60,61,61,62,62],"right_children":[2,4,6,8,10,12,14,16,18,20,22,24,26,28,30,32,34,36,38,40,42,44,46,48,50,52,54,56,58,60,62,-1,-1,64,66,68,-1,70,72,74,76,78,-1,80,82,84,86,-1,88,90,92,94,96,98,100,102,104,106,108,110,112,114,116,-1,-1,-1,-1,-1,-1,-1,-1,-1,-1,-1,-1,-1,-1,-1,-1,-1,-1,-1,-1,-1,-1,-1,-1,-1,-1,-1,-1,-1,-1,-1,-1,-1,-1,-1,-1,-1,-1,-1,-1,-1,-1,-1,-1,-1,-1,-1,-1,-1,-1,-1,-1,-1,-1],"split_conditions":[3.2568108E1,2.22E2,1.87E2,2.3806162E1,1.8840807E1,4.4885426E1,4.045024E1,3E1,2.5E1,3.37E2,1.9850464E1,3.7338455E1,4.3E1,2.21E2,4.683586E1,1.7159317E1,1.5511787E1,3.3478706E1,2.9679026E1,2.0847807E1,3.59E2,2.2099985E1,3.091853E1,3.2741245E1,6.2E1,2.7E1,2.7213171E1,2.6272524E1,3.7831985E1,2.9319954E1,4.924846E1,-2.8851986E-1,-1.9602737E0,1.23E2,1.6122492E1,1E0,4.4763538E-1,1E0,2.920917E1,1.4631193E1,3.218878E1,1.2944155E1,-9.062771E-1,2.0128792E1,3.109077E1,2.27E2,2.67E2,1.5695349E0,1.7741735E1,3.7474506E1,9.1E1,2.3E1,4.9337082E1,1.9521362E1,3.2043087E1,1.838657E1,2.9539455E1,3.2890434E1,3.9257854E1,1.578903E1,4.3994457E1,3.5248154E1,4.9337082E1,-1.5977119E0,-9.8522896E-1,-1.6840062E0,-7.7974516E-1,-7.283291E-1,-1.4736626E0,-6.913832E-1,-2.0595072E-1,4.0042105E-1,-4.4620678E-1,5.447125E-1,-6.193773E-1,-9.832511E-1,-4.526553E-1,6.0669243E-1,-1.6702871E-1,5.7578003E-1,-5.605876E-1,8.46564E-1,-7.5574356E-1,7.5622004E-1,-6.2513344E-2,-1.419591E-1,1.4506477E0,4.6581206E-1,-3.762609E-1,7.904915E-1,-1.7147441E-1,7.269908E-1,2.4277504E-1,1.2463384E-1,1.7039512E0,-9.467005E-1,2.8137475E-1,5.2820504E-1,1.3897102E0,2.524793E-1,1.0903959E0,-1.3094468E-1,8.10005E-1,-7.82775E-1,1.4477292E-1,1.3818518E0,5.200421E-1,1.3942544E0,3.977932E-1,1.8934869E0,9.035388E-1,1.7921306E0,1.0915886E0,2.0353758E0,8.655004E-1,-5.015093E-1,1.2505772E0],"split_indices":[0,1,1,0,0,0,0,1,1,1,3,0,1,1,0,3,0,3,0,3,1,0,0,0,1,1,3,3,0,3,0,0,0,1,3,2,0,2,3,0,3,0,0,0,0,1,1,0,3,0,1,1,0,3,3,3,3,0,0,3,0,3,0,0,0,0,0,0,0,0,0,0,0,0,0,0,0,0,0,0,0,0,0,0,0,0,0,0,0,0,0,0,0,0,0,0,0,0,0,0,0,0,0,0,0,0,0,0,0,0,0,0,0,0,0,0,0],"split_type":[0,0,0,0,0,0,0,0,0,0,0,0,0,0,0,0,0,0,0,0,0,0,0,0,0,0,0,0,0,0,0,0,0,0,0,0,0,0,0,0,0,0,0,0,0,0,0,0,0,0,0,0,0,0,0,0,0,0,0,0,0,0,0,0,0,0,0,0,0,0,0,0,0,0,0,0,0,0,0,0,0,0,0,0,0,0,0,0,0,0,0,0,0,0,0,0,0,0,0,0,0,0,0,0,0,0,0,0,0,0,0,0,0,0,0,0,0],"sum_hessian":[8E2,4.62E2,3.38E2,2.79E2,1.83E2,1.69E2,1.69E2,1.67E2,1.12E2,6.9E1,1.14E2,1.13E2,5.6E1,6.6E1,1.03E2,1.7E1,1.5E2,1.7E1,9.5E1,5.2E1,1.7E1,2.6E1,8.8E1,4.6E1,6.7E1,1.3E1,4.3E1,1.3E1,5.3E1,7.4E1,2.9E1,1E0,1.6E1,5.9E1,9.1E1,1.6E1,1E0,5.9E1,3.6E1,8E0,4.4E1,1.4E1,3E0,4E0,2.2E1,8.1E1,7E0,1E0,4.5E1,2E1,4.7E1,9E0,4E0,2.3E1,2E1,1E1,3E0,3.7E1,1.6E1,5.2E1,2.2E1,2.2E1,7E0,2.6E1,3.3E1,3E0,8.8E1,9E0,7E0,2.8E1,3.1E1,2.1E1,1.5E1,4E0,4E0,2.6E1,1.8E1,5E0,9E0,1E0,3E0,2.1E1,1E0,7E0,7.4E1,3E0,4E0,6E0,3.9E1,1E0,1.9E1,1.4E1,3.3E1,6E0,3E0,3E0,1E0,6E0,1.7E1,1.3E1,7E0,4E0,6E0,2E0,1E0,5E0,3.2E1,1.1E1,5E0,5E0,4.7E1,1.3E1,9E0,1.9E1,3E0,1E0,6E0],"tree_param":{"num_deleted":"0","num_feature":"4","num_nodes":"117","size_leaf_vector":"1"}},{"base_weights":[1.7514046E-2,-1.0471523E0,2.0690699E0,-2.2019043E0,-3.1910133E-1,9.493646E-1,2.961535E0,-3.5500152E0,-1.4865736E0,-1.3354168E0,4.8676968E-1,4.008167E-1,2.120575E0,2.5024161E0,3.9651046E0,-1.7579578E0,-3.2419071E0,-1.7033876E0,-1.5472288E-1,-1.2019277E0,-4.205344E0,-1.5673883E-1,1.0648787E0,-8.1010595E-2,1.4388535E0,2.4193332E0,-1.0983925E0,1.6832399E0,3.2752512E0,3.2977962E0,1.8112905E0,-2.7853158E0,-4.9883595E0,-1.7996491E0,7.935467E-1,-9.485284E-1,1.6995078E-1,-1.4338497E0,4.3676153E-1,-1.6418965E0,-3.340113E-1,-1.7759249E0,4.186153E-1,8.920839E-1,2.854112E0,1.9568253E-1,-1.8693895E0,1.7910495E0,-1.0340357E0,6.2592186E-2,2.7974336E0,-4.1409686E-1,-3.7890244E-2,-9.13739E-1,1.909273E0,2.5167005E0,4.652536E0,4.472174E0,1.9498502E0,-5.345892E-1,-1.1056525E0,-6.771174E-1,-1.9850556E0,-3.6147708E-1,-6.779497E-1,8.3838826E-1,-4.4161493E-1,1.644892E-1,-4.1577688E-1,-8.6875653E-1,-3.2497498E-1,1.4550039E0,-3.2440905E-2,-6.633594E-2,-7.77124E-1,2.2317174E-1,-5.064212E-1,5.986095E-3,4.4522932E-1,1.1043018E0,-4.4012204E-1,-1.624385E-1,3.0403703E-1,7.5322725E-2,-7.854172E-1,5.9588355E-1,-7.1293645E-2,-4.888138E-1,1.12799264E-1,-3.5518515E-1,5.111355E-1,1.1436608E0,5.558268E-1,1.6813087E-1,-6.250004E-1,8.6387146E-1,2.928215E-1,8.778444E-1,2.0000555E-1,1.49959E0,3.7675136E-1,1.4490681E0,-2.9591733E-1,1.0098802E0,2.529254E-1],"categories":[],"categories_nodes":[],"categories_segments":[],"categories_sizes":[],"default_left":[0,0,0,0,0,0,0,0,0,0,0,0,0,0,0,0,0,0,0,0,0,0,0,0,0,0,0,0,0,0,0,0,0,0,0,0,0,0,0,0,0,0,0,0,0,0,0,0,0,0,0,0,0,0,0,0,0,0,0,0,0,0,0,0,0,0,0,0,0,0,0,0,0,0,0,0,0,0,0,0,0,0,0,0,0,0,0,0,0,0,0,0,0,0,0,0,0,0,0,0,0,0,0,0,0],"id":5,"left_children":[1,3,5,7,9,11,13,15,17,19,21,23,25,27,29,-1,31,33,35,37,39,41,43,45,47,49,51,53,55,57,-1,59,61,63,65,-1,67,69,71,-1,-1,73,75,77,79,81,83,85,87,89,91,-1,-1,93,95,97,99,101,103,-1,-1,-1,-1,-1,-1,-1,-1,-1,-1,-1,-1,-1,-1,-1,-1,-1,-1,-1,-1,-1,-1,-1,-1,-1,-1,-1,-1,-1,-1,-1,-1,-1,-1,-1,-1,-1,-1,-1,-1,-1,-1,-1,-1,-1,-1],"loss_changes":[1.7517289E3,4.4319666E2,2.709961E2,1.914491E2,2.6683124E2,7.817324E1,6.0112793E1,3.0820557E1,3.8719604E1,5.0112457E1,6.787421E1,4.2629692E1,4.016339E1,6.2227417E1,4.3707886E1,0E0,3.714038E1,2.9309692E1,2.0063469E1,5.3452927E1,1.742366E1,8.17931E1,2.7134247E1,2.9560904E1,2.5367424E1,3.1903961E1,9.2191267E-1,3.344275E1,4.470697E1,4.985083E1,0E0,4.1302673E1,3.8440216E1,2.7929565E1,2.678204E1,0E0,1.1944426E1,5.939766E1,4.381034E1,0E0,0E0,2.8553726E1,4.579928E1,4.5922264E1,3.398561E1,3.1895256E1,1.3357523E1,9.97747E0,3.970459E0,1.4292097E1,2.265445E1,0E0,0E0,9.788522E0,4.2463516E1,2.6076096E1,1.4883118E1,4.189914E1,2.6947144E1,0E0,0E0,0E0,0E0,0E0,0E0,0E0,0E0,0E0,0E0,0E0,0E0,0E0,0E0,0E0,0E0,0E0,0E0,0E0,0E0,0E0,0E0,0E0,0E0,0E0,0E0,0E0,0E0,0E0,0E0,0E0,0E0,0E0,0E0,0E0,0E0,0E0,0E0,0E0,0E0,0E0,0E0,0E0,0E0,0E0,0E0],"parents":[2147483647,0,0,1,1,2,2,3,3,4,4,5,5,6,6,7,7,8,8,9,9,10,10,11,11,12,12,13,13,14,14,16,16,17,17,18,18,19,19,20,20,21,21,22,22,23,23,24,24,25,25,26,26,27,27,28,28,29,29,31,31,32,32,33,33,34,34,36,36,37,37,38,38,41,41,42,42,43,43,44,44,45,45,46,46,47,47,48,48,49,49,50,50,53,53,54,54,55,55,56,56,57,57,58,58],"right_children":[2,4,6,8,10,12,14,16,18,20,22,24,26,28,30,-1,32,34,36,38,40,42,44,46,48,50,52,54,56,58,-1,60,62,64,66,-1,68,70,72,-1,-1,74,76,78,80,82,84,86,88,90,92,-1,-1,94,96,98,100,102,104,-1,-1,-1,-1,-1,-1,-1,-1,-1,-1,-1,-1,-1,-1,-1,-1,-1,-1,-1,-1,-1,-1,-1,-1,-1,-1,-1,-1,-1,-1,-1,-1,-1,-1,-1,-1,-1,-1,-1,-1,-1,-1,-1,-1,-1,-1],"split_conditions":[3.5881763E1,1.9875872E1,1.72E2,1.23E2,1.63E2,4.6274757E1,3.21E2,1.0735348E1,3.37E2,1.54E2,2.52E2,1.12E2,1.63E2,2.5384706E1,4.733679E1,-1.7579578E0,1.8073887E1,3.7097538E1,1.5849176E1,1.35E2,2.3806162E1,2.4884E1,3.4294003E1,1.02E2,1.63E2,2E1,4.825114E1,3.738035E1,4.590857E1,3.45E2,1.8112905E0,1E0,7E1,2.6238138E1,3.721888E1,-9.485284E-1,3.1057844E1,1.8889212E1,1.5960445E1,-1.6418965E0,-3.340113E-1,2.1912403E1,2.41E2,2.6810604E1,3.766313E1,6.2E1,3.8538876E1,3.6608047E1,1E0,2.7293907E1,4.840704E1,-4.1409686E-1,-3.7890244E-2,3.6655643E1,1.9521362E1,4.3697815E1,4.916814E1,3.1442268E1,2.5622387E1,-5.345892E-1,-1.1056525E0,-6.771174E-1,-1.9850556E0,-3.6147708E-1,-6.779497E-1,8.3838826E-1,-4.4161493E-1,1.644892E-1,-4.1577688E-1,-8.6875653E-1,-3.2497498E-1,1.4550039E0,-3.2440905E-2,-6.633594E-2,-7.77124E-1,2.2317174E-1,-5.064212E-1,5.986095E-3,4.4522932E-1,1.1043018E0,-4.4012204E-1,-1.624385E-1,3.0403703E-1,7.5322725E-2,-7.854172E-1,5.9588355E-1,-7.1293645E-2,-4.888138E-1,1.12799264E-1,-3.5518515E-1,5.111355E-1,1.1436608E0,5.558268E-1,1.6813087E-1,-6.250004E-1,8.6387146E-1,2.928215E-1,8.778444E-1,2.0000555E-1,1.49959E0,3.7675136E-1,1.4490681E0,-2.9591733E-1,1.0098802E0,2.529254E-1],"split_indices":[0,0,1,1,1,0,1,0,1,1,1,1,1,3,0,0,0,3,3,1,0,0,3,1,1,1,0,0,0,1,0,2,1,3,3,0,3,3,3,0,0,0,1,0,3,1,0,3,2,3,0,0,0,0,3,0,0,3,3,0,0,0,0,0,0,0,0,0,0,0,0,0,0,0,0,0,0,0,0,0,0,0,0,0,0,0,0,0,0,0,0,0,0,0,0,0,0,0,0,0,0,0,0,0,0],"split_type":[0,0,0,0,0,0,0,0,0,0,0,0,0,0,0,0,0,0,0,0,0,0,0,0,0,0,0,0,0,0,0,0,0,0,0,0,0,0,0,0,0,0,0,0,0,0,0,0,0,0,0,0,0,0,0,0,0,0,0,0,0,0,0,0,0,0,0,0,0,0,0,0,0,0,0,0,0,0,0,0,0,0,0,0,0,0,0,0,0,0,0,0,0,0,0,0,0,0,0,0,0,0,0,0,0],"sum_hessian":[8E2,5.27E2,2.73E2,2.03E2,3.24E2,1.22E2,1.51E2,6.9E1,1.34E2,1.43E2,1.81E2,8.4E1,3.8E1,1.06E2,4.5E1,6E0,6.3E1,1.15E2,1.9E1,1.38E2,5E0,8.6E1,9.5E1,5.8E1,2.6E1,3.5E1,3E0,5.3E1,5.3E1,3.6E1,9E0,5.2E1,1.1E1,1.11E2,4E0,1E0,1.8E1,1.21E2,1.7E1,3E0,2E0,2.2E1,6.4E1,8.8E1,7E0,5.1E1,7E0,2.3E1,3E0,5E0,3E1,2E0,1E0,4E0,4.9E1,3.6E1,1.7E1,1.8E1,1.8E1,2.6E1,2.6E1,5E0,6E0,5E1,6.1E1,2E0,2E0,1.5E1,3E0,2.2E1,9.9E1,1E0,1.6E1,8E0,1.4E1,5.6E1,8E0,3.6E1,5.2E1,6E0,1E0,2.7E1,2.4E1,2E0,5E0,2.1E1,2E0,2E0,1E0,3E0,2E0,1.3E1,1.7E1,2E0,2E0,2.3E1,2.6E1,2.9E1,7E0,1.5E1,2E0,1.7E1,1E0,7E0,1.1E1],"tree_param":{"num_deleted":"0","num_feature":"4","num_nodes":"105","size_leaf_vector":"1"}},{"base_weights":[1.1265518E-2,-9.1178757E-1,1.2527659E0,-1.4672765E0,-8.559804E-2,6.860285E-1,2.1832237E0,-2.928126E0,-1.1763436E0,-8.239655E-1,3.670717E-1,1.121646E-1,1.4174274E0,1.8660933E0,3.921027E0,-1.6986166E0,-4.2523932E0,-3.1356633E0,-9.8595333E-1,-1.2860718E-1,-1.5355167E0,7.559221E-2,1.3250747E0,3.42499E-1,-1.0009753E0,1.496972E0,-8.9703315E-1,3.7129166E0,1.6464779E0,4.6318398E0,2.0407994E0,-3.4392946E0,-8.5277215E-2,-2.4713612E0,-4.9663835E0,-3.7690194E0,-4.8179093E-1,-1.4018855E0,-2.5343025E-1,-2.2979493E0,2.8216344E-1,-1.9679403E0,4.7531182E-1,-5.1313376E-1,7.9170704E-1,2.1396446E0,-1.3079311E0,1.2538046E-1,1.9423465E0,-1.7690723E0,7.879434E-1,9.3741536E-1,2.0988097E0,2.234695E0,5.0398436E0,1.8871674E-1,2.0983942E0,1.481487E0,1.4316559E-1,-1.1519318E0,1.0644835E0,-7.017147E-1,-1.516507E0,-9.97809E-1,2.196052E-1,-9.406614E-1,3.2668135E-1,-2.3166318E-1,-1.5688835E0,-7.3398465E-1,-1.6695769E0,9.5130503E-1,-1.1922005E0,-5.1322174E-1,-1.7932972E-1,-5.3052646E-1,3.16817E-2,-1.6331941E0,1.9081837E-1,7.640551E-1,-3.9696656E-2,-9.682732E-2,-9.3307805E-1,-3.5301152E-1,4.114379E-1,3.0280383E-2,-8.9385027E-1,1.4792395E0,2.3959987E-2,4.0437606E-1,1.9322052E0,3.741666E-1,-1.0608305E0,7.8372434E-2,-8.582823E-1,9.967504E-2,7.3263854E-1,-6.879934E-1,-1.801486E-1,-2.7323785E-1,6.869082E-1,3.5149312E-1,-9.368134E-1,6.6591203E-1,-8.8005066E-2,1.1680808E0,5.1341057E-3,2.5778675E-1,1.7610481E0,4.129065E-1,-5.191128E-1,2.8671E-1,7.7021974E-1,-3.557396E-2,-4.8279536E-1],"categories":[],"categories_nodes":[],"categories_segments":[],"categories_sizes":[],"default_left":[0,0,0,0,0,0,0,0,0,0,0,0,0,0,0,0,0,0,0,0,0,0,0,0,0,0,0,0,0,0,0,0,0,0,0,0,0,0,0,0,0,0,0,0,0,0,0,0,0,0,0,0,0,0,0,0,0,0,0,0,0,0,0,0,0,0,0,0,0,0,0,0,0,0,0,0,0,0,0,0,0,0,0,0,0,0,0,0,0,0,0,0,0,0,0,0,0,0,0,0,0,0,0,0,0,0,0,0,0,0,0,0,0,0,0],"id":6,"left_children":[1,3,5,7,9,11,13,15,17,19,21,23,25,27,29,31,33,35,37,39,41,43,45,47,49,51,-1,53,55,57,59,61,63,65,67,69,71,73,75,77,79,81,83,85,87,89,91,93,95,97,99,101,103,105,107,109,111,-1,-1,113,-1,-1,-1,-1,-1,-1,-1,-1,-1,-1,-1,-1,-1,-1,-1,-1,-1,-1,-1,-1,-1,-1,-1,-1,-1,-1,-1,-1,-1,-1,-1,-1,-1,-1,-1,-1,-1,-1,-1,-1,-1,-1,-1,-1,-1,-1,-1,-1,-1,-1,-1,-1,-1,-1,-1],"loss_changes":[9.190648E2,2.1098645E2,1.7884747E2,1.1343298E2,6.2470463E1,8.966184E1,6.3776306E1,6.604578E1,8.307956E1,3.493212E1,3.229147E1,3.1366554E1,3.74321E1,3.890732E1,1.5940643E1,6.991431E1,1.4430725E1,3.180104E1,6.423689E1,3.361917E1,3.1368927E1,3.834984E1,6.070722E1,3.4839478E1,3.024926E1,2.9351456E1,0E0,1.0313904E1,6.614136E1,1.4194763E1,3.77782E1,9.508438E0,3.9515804E1,2.2331749E1,1.1417969E1,2.4389572E1,7.638349E1,3.250531E1,4.2613785E1,5.8845634E1,3.0374767E1,5.349655E1,1.1976961E1,7.6026634E1,1.2040746E2,6.282847E1,4.426352E1,3.7262608E1,8.844963E0,7.8120766E0,1.9942982E1,5.1208557E1,1.337616E1,2.56847E1,1.2311752E1,5.936131E1,3.8812866E1,0E0,0E0,1.2270896E0,0E0,0E0,0E0,0E0,0E0,0E0,0E0,0E0,0E0,0E0,0E0,0E0,0E0,0E0,0E0,0E0,0E0,0E0,0E0,0E0,0E0,0E0,0E0,0E0,0E0,0E0,0E0,0E0,0E0,0E0,0E0,0E0,0E0,0E0,0E0,0E0,0E0,0E0,0E0,0E0,0E0,0E0,0E0,0E0,0E0,0E0,0E0,0E0,0E0,0E0,0E0,0E0,0E0,0E0,0E0],"parents":[2147483647,0,0,1,1,2,2,3,3,4,4,5,5,6,6,7,7,8,8,9,9,10,10,11,11,12,12,13,13,14,14,15,15,16,16,17,17,18,18,19,19,20,20,21,21,22,22,23,23,24,24,25,25,27,27,28,28,29,29,30,30,31,31,32,32,33,33,34,34,35,35,36,36,37,37,38,38,39,39,40,40,41,41,42,42,43,43,44,44,45,45,46,46,47,47,48,48,49,49,50,50,51,51,52,52,53,53,54,54,55,55,56,56,59,59],"right_children":[2,4,6,8,10,12,14,16,18,20,22,24,26,28,30,32,34,36,38,40,42,44,46,48,50,52,-1,54,56,58,60,62,64,66,68,70,72,74,76,78,80,82,84,86,88,90,92,94,96,98,100,102,104,106,108,110,112,-1,-1,114,-1,-1,-1,-1,-1,-1,-1,-1,-1,-1,-1,-1,-1,-1,-1,-1,-1,-1,-1,-1,-1,-1,-1,-1,-1,-1,-1,-1,-1,-1,-1,-1,-1,-1,-1,-1,-1,-1,-1,-1,-1,-1,-1,-1,-1,-1,-1,-1,-1,-1,-1,-1,-1,-1,-1],"split_conditions":[3.2482185E1,2.21E2,2.39E2,1.360503E1,1.8840807E1,4.2997738E1,4.733679E1,2.6881351E1,1.8E1,1.4382856E1,3.26E2,3.3743454E1,2.37E2,1.5993951E1,2.9947268E1,2.001156E1,1E0,3.091853E1,2.569737E1,1.1069633E1,3.5612057E1,2.8109585E1,2.6224642E1,3.1895588E1,3.6378532E1,1.12E2,-8.9703315E-1,4.1013947E1,2.3578016E1,4.966759E1,2.81E2,1.3351963E1,3E1,3.6710323E1,7E0,1E0,3.132753E1,3.1588333E1,1.7668158E1,2.1170542E1,2.1170542E1,2.6238138E1,1.5242081E1,3.05E2,2.9096035E1,2.5797379E1,1E0,3.1391155E1,3.3358604E1,3.8701824E1,1.3E2,1.08E2,3.325E1,3.9257854E1,2.67E2,4.246942E1,3.7831985E1,1.481487E0,1.4316559E-1,4.80833E1,1.0644835E0,-7.017147E-1,-1.516507E0,-9.97809E-1,2.196052E-1,-9.406614E-1,3.2668135E-1,-2.3166318E-1,-1.5688835E0,-7.3398465E-1,-1.6695769E0,9.5130503E-1,-1.1922005E0,-5.1322174E-1,-1.7932972E-1,-5.3052646E-1,3.16817E-2,-1.6331941E0,1.9081837E-1,7.640551E-1,-3.9696656E-2,-9.682732E-2,-9.3307805E-1,-3.5301152E-1,4.114379E-1,3.0280383E-2,-8.9385027E-1,1.4792395E0,2.3959987E-2,4.0437606E-1,1.9322052E0,3.741666E-1,-1.0608305E0,7.8372434E-2,-8.582823E-1,9.967504E-2,7.3263854E-1,-6.879934E-1,-1.801486E-1,-2.7323785E-1,6.869082E-1,3.5149312E-1,-9.368134E-1,6.6591203E-1,-8.8005066E-2,1.1680808E0,5.1341057E-3,2.5778675E-1,1.7610481E0,4.129065E-1,-5.191128E-1,2.8671E-1,7.7021974E-1,-3.557396E-2,-4.8279536E-1],"split_indices":[0,1,1,0,0,0,0,3,1,0,1,3,1,3,3,3,2,0,0,0,3,3,3,3,3,1,0,0,3,0,1,0,1,3,1,2,0,3,3,3,3,3,0,1,3,3,2,3,0,0,1,1,3,0,1,0,0,0,0,0,0,0,0,0,0,0,0,0,0,0,0,0,0,0,0,0,0,0,0,0,0,0,0,0,0,0,0,0,0,0,0,0,0,0,0,0,0,0,0,0,0,0,0,0,0,0,0,0,0,0,0,0,0,0,0],"split_type":[0,0,0,0,0,0,0,0,0,0,0,0,0,0,0,0,0,0,0,0,0,0,0,0,0,0,0,0,0,0,0,0,0,0,0,0,0,0,0,0,0,0,0,0,0,0,0,0,0,0,0,0,0,0,0,0,0,0,0,0,0,0,0,0,0,0,0,0,0,0,0,0,0,0,0,0,0,0,0,0,0,0,0,0,0,0,0,0,0,0,0,0,0,0,0,0,0,0,0,0,0,0,0,0,0,0,0,0,0,0,0,0,0,0,0],"sum_hessian":[8E2,4.59E2,3.41E2,2.74E2,1.85E2,2.13E2,1.28E2,4.4E1,2.3E2,7E1,1.15E2,1.2E2,9.3E1,1.1E2,1.8E1,2.4E1,2E1,1.9E1,2.11E2,3.6E1,3.4E1,8.9E1,2.6E1,1E2,2E1,9.2E1,1E0,1E1,1E2,1.2E1,6E0,1.1E1,1.3E1,7E0,1.3E1,1.5E1,4E0,1.34E2,7.7E1,5E0,3.1E1,2.8E1,6E0,4.9E1,4E1,2E1,6E0,8.9E1,1.1E1,1.4E1,6E0,4.9E1,4.3E1,6E0,4E0,2.4E1,7.6E1,1.1E1,1E0,2E0,4E0,8E0,3E0,2E0,1.1E1,6E0,1E0,1E0,1.2E1,1E1,5E0,2E0,2E0,9.6E1,3.8E1,1.4E1,6.3E1,2E0,3E0,4E0,2.7E1,1.2E1,1.6E1,2E0,4E0,4E1,9E0,5E0,3.5E1,1.8E1,2E0,3E0,3E0,8.6E1,3E0,3E0,8E0,9E0,5E0,3E0,3E0,4.7E1,2E0,4.1E1,2E0,3E0,3E0,1E0,3E0,1.5E1,9E0,2.3E1,5.3E1,1E0,1E0],"tree_param":{"num_deleted":"0","num_feature":"4","num_nodes":"115","size_leaf_vector":"1"}},{"base_weights":[3.3418075E-3,-6.0307777E-1,9.759649E-1,-1.2608559E0,-1.8781886E-1,3.1091872E-1,1.3988087E0,-2.4333298E0,-9.914454E-1,-9.610028E-1,1.6822648E-1,2.1763109E-1,2.9851742E0,6.785152E-1,1.6077335E0,-1.9793608E0,-4.761272E0,1.8053576E0,-1.0763642E0,-5.8749837E-1,-1.6562538E0,5.1976967E-1,-4.2884946E-1,5.5155164E-1,1.2964101E-1,1.5114212E-2,1.1839936E0,-4.414849E-2,1.2825745E0,1.359298E0,2.2258945E0,-2.9794366E0,-3.6545306E-1,-2.09931E-1,-1.6805115E0,-8.072284E-1,1.1448473E0,-1.8185459E0,-7.791553E-1,-9.930519E-1,5.0408584E-1,-2.057237E0,-1.4602685E-1,1.9395559E-1,1.8406286E0,-3.35127E0,-4.6983242E-2,-2.9418606E-1,4.250176E-1,-2.11163E0,5.6653124E-1,3.0740917E0,6.4932835E-1,1.4442254E0,-6.113861E-1,3.213555E0,1.3561647E0,-4.7224373E-1,-1.1575087E0,3.975161E-1,-4.7629544E-1,-5.126105E-1,1.493577E-1,-3.1024575E-1,-1.0108479E0,-5.977225E-1,-1.4718352E-1,-6.272258E-1,-5.2054178E-2,5.307106E-1,-8.2742505E-2,2.704219E-1,-6.634917E-1,-3.0634364E-1,4.9586582E-1,9.4336665E-1,5.546811E-3,1.155263E0,1.6495728E-1,3.211384E-2,-1.1390822E0,-1.835453E-1,3.9002937E-1,-2.9450902E-1,1.595096E-1,-2.5156796E-1,2.0645837E-1,-1.7419797E-1,-7.047622E-1,4.144666E-1,6.284435E-2,1.3185071E0,8.644562E-2,-2.7423912E-1,5.608476E-1,-5.349068E-1,4.5749566E-1,6.2345314E-1,1.2354075E0,1.9832014E-1,8.5515636E-1],"categories":[],"categories_nodes":[],"categories_segments":[],"categories_sizes":[],"default_left":[0,0,0,0,0,0,0,0,0,0,0,0,0,0,0,0,0,0,0,0,0,0,0,0,0,0,0,0,0,0,0,0,0,0,0,0,0,0,0,0,0,0,0,0,0,0,0,0,0,0,0,0,0,0,0,0,0,0,0,0,0,0,0,0,0,0,0,0,0,0,0,0,0,0,0,0,0,0,0,0,0,0,0,0,0,0,0,0,0,0,0,0,0,0,0,0,0,0,0,0,0],"id":7,"left_children":[1,3,5,7,9,11,13,15,17,19,21,23,25,27,29,31,33,35,37,39,41,43,45,-1,47,-1,-1,49,51,53,55,57,59,-1,-1,61,-1,63,65,67,69,71,73,75,77,79,81,83,85,87,89,91,93,95,-1,97,99,-1,-1,-1,-1,-1,-1,-1,-1,-1,-1,-1,-1,-1,-1,-1,-1,-1,-1,-1,-1,-1,-1,-1,-1,-1,-1,-1,-1,-1,-1,-1,-1,-1,-1,-1,-1,-1,-1,-1,-1,-1,-1,-1,-1],"loss_changes":[4.7303256E2,1.3469841E2,8.617795E1,5.7919952E1,8.384938E1,2.95368E1,2.7200714E1,2.7564178E1,3.9230896E1,2.395617E1,4.409158E1,1.6590914E1,1.1088043E1,1.9264023E1,1.9242432E1,4.894609E1,1.3147194E1,2.9347452E1,3.2332275E1,2.8833117E1,1.9683578E1,5.6449783E1,8.688849E1,0E0,1.4271343E1,0E0,0E0,2.771025E1,2.5231213E1,3.3526398E1,3.00018E1,1.7394165E1,2.8963469E1,0E0,0E0,4.3801966E0,0E0,4.882718E1,3.7880966E1,4.1918766E1,1.8245396E1,1.3870918E1,1.4281936E1,5.5339035E1,6.5346565E1,1.427787E1,5.4056866E1,2.720878E1,2.2857573E1,4.5453072E-1,4.6576653E0,2.0813778E1,3.7954796E1,2.982486E1,0E0,9.926498E0,2.2006256E1,0E0,0E0,0E0,0E0,0E0,0E0,0E0,0E0,0E0,0E0,0E0,0E0,0E0,0E0,0E0,0E0,0E0,0E0,0E0,0E0,0E0,0E0,0E0,0E0,0E0,0E0,0E0,0E0,0E0,0E0,0E0,0E0,0E0,0E0,0E0,0E0,0E0,0E0,0E0,0E0,0E0,0E0,0E0,0E0],"parents":[2147483647,0,0,1,1,2,2,3,3,4,4,5,5,6,6,7,7,8,8,9,9,10,10,11,11,12,12,13,13,14,14,15,15,16,16,17,17,18,18,19,19,20,20,21,21,22,22,24,24,27,27,28,28,29,29,30,30,31,31,32,32,35,35,37,37,38,38,39,39,40,40,41,41,42,42,43,43,44,44,45,45,46,46,47,47,48,48,49,49,50,50,51,51,52,52,53,53,55,55,56,56],"right_children":[2,4,6,8,10,12,14,16,18,20,22,24,26,28,30,32,34,36,38,40,42,44,46,-1,48,-1,-1,50,52,54,56,58,60,-1,-1,62,-1,64,66,68,70,72,74,76,78,80,82,84,86,88,90,92,94,96,-1,98,100,-1,-1,-1,-1,-1,-1,-1,-1,-1,-1,-1,-1,-1,-1,-1,-1,-1,-1,-1,-1,-1,-1,-1,-1,-1,-1,-1,-1,-1,-1,-1,-1,-1,-1,-1,-1,-1,-1,-1,-1,-1,-1,-1,-1],"split_conditions":[3.4192886E1,1.35E2,1.53E2,1.4784795E1,1.7397326E1,3.699437E1,3.7831985E1,1.4382856E1,1.5793771E1,1.4784795E1,2.920917E1,1.6708384E1,4.3768375E1,1E0,3.21E2,1E2,6.5E1,2.75391E1,2.0128792E1,1.360503E1,3.4733223E1,2.5999926E1,3.0039038E1,5.5155164E-1,4.1710163E1,1.5114212E-2,1.1839936E0,1.85E2,1.92E2,3.16E2,3.45E2,1E0,1.14E2,-2.09931E-1,-1.6805115E0,1.5242081E1,1.1448473E0,1.8073887E1,1.8889212E1,2.24E2,2.22E2,1.4E2,1.674958E1,1.43E2,2.299994E1,1.63E2,2.81E2,2.8443155E1,1.9521362E1,1.66E2,2.22E2,2.6272524E1,2.58E2,1.5300969E1,-6.113861E-1,4.4885426E1,4.733679E1,-4.7224373E-1,-1.1575087E0,3.975161E-1,-4.7629544E-1,-5.126105E-1,1.493577E-1,-3.1024575E-1,-1.0108479E0,-5.977225E-1,-1.4718352E-1,-6.272258E-1,-5.2054178E-2,5.307106E-1,-8.2742505E-2,2.704219E-1,-6.634917E-1,-3.0634364E-1,4.9586582E-1,9.4336665E-1,5.546811E-3,1.155263E0,1.6495728E-1,3.211384E-2,-1.1390822E0,-1.835453E-1,3.9002937E-1,-2.9450902E-1,1.595096E-1,-2.5156796E-1,2.0645837E-1,-1.7419797E-1,-7.047622E-1,4.144666E-1,6.284435E-2,1.3185071E0,8.644562E-2,-2.7423912E-1,5.608476E-1,-5.349068E-1,4.5749566E-1,6.2345314E-1,1.2354075E0,1.9832014E-1,8.5515636E-1],"split_indices":[0,1,1,0,0,3,0,0,0,0,3,3,0,2,1,1,1,3,0,0,3,3,3,0,0,0,0,1,1,1,1,2,1,0,0,0,0,0,3,1,1,1,0,1,0,1,1,3,3,1,1,3,1,3,0,0,0,0,0,0,0,0,0,0,0,0,0,0,0,0,0,0,0,0,0,0,0,0,0,0,0,0,0,0,0,0,0,0,0,0,0,0,0,0,0,0,0,0,0,0,0],"split_type":[0,0,0,0,0,0,0,0,0,0,0,0,0,0,0,0,0,0,0,0,0,0,0,0,0,0,0,0,0,0,0,0,0,0,0,0,0,0,0,0,0,0,0,0,0,0,0,0,0,0,0,0,0,0,0,0,0,0,0,0,0,0,0,0,0,0,0,0,0,0,0,0,0,0,0,0,0,0,0,0,0,0,0,0,0,0,0,0,0,0,0,0,0,0,0,0,0,0,0,0,0],"sum_hessian":[8E2,4.93E2,3.07E2,1.9E2,3.03E2,1.2E2,1.87E2,3.4E1,1.56E2,9.5E1,2.08E2,1.17E2,3E0,4.3E1,1.44E2,3E1,4E0,4E0,1.52E2,6.3E1,3.2E1,1.31E2,7.7E1,5E0,1.12E2,1E0,2E0,2E1,2.3E1,1.05E2,3.9E1,1.8E1,1.2E1,1E0,3E0,2E0,2E0,4.2E1,1.1E2,4.6E1,1.7E1,2.5E1,7E0,1.06E2,2.5E1,8E0,6.9E1,4.6E1,6.6E1,4E0,1.6E1,5E0,1.8E1,1.03E2,2E0,1.7E1,2.2E1,8E0,1E1,5E0,7E0,1E0,1E0,2.9E1,1.3E1,2E1,9E1,1.9E1,2.7E1,6E0,1.1E1,1E0,2.4E1,5E0,2E0,5E0,1.01E2,9E0,1.6E1,1E0,7E0,4.9E1,2E1,2.5E1,2.1E1,1.1E1,5.5E1,1E0,3E0,4E0,1.2E1,3E0,2E0,8E0,1E1,2E0,1.01E2,9E0,8E0,1.6E1,6E0],"tree_param":{"num_deleted":"0","num_feature":"4","num_nodes":"101","size_leaf_vector":"1"}},{"base_weights":[3.7555022E-3,-6.924692E-1,4.9554875E-1,-1.8454078E0,-5.282124E-1,-1.7223431E-1,7.9999566E-1,-9.263609E-1,-2.9682813E0,-9.682127E-1,-2.60845E-1,-4.2167202E-1,8.6586076E-1,5.5876285E-1,1.2885687E0,-1.7622391E0,2.6024241E0,-8.5263294E-1,-1.2711272E0,-1.3674176E0,-3.830708E-1,-4.4534636E-1,4.3180984E-1,-9.943145E-1,-1.22921824E-1,1.3163276E0,-1.0803165E0,6.829789E-1,-1.3000271E0,1.1017035E0,2.4378474E0,-2.400212E0,2.653012E0,1.7939472E-1,8.8621175E-1,4.9301156E-1,-9.779133E-1,-9.3956155E-1,-2.0144048E0,-3.9471235E-2,-2.0102348E0,5.623197E-1,-6.599628E-1,8.4846634E-1,-1.0513191E0,-4.3326193E-1,-2.4850705E0,2.158577E0,-2.7140304E-1,5.569488E-1,3.080969E0,-8.0315727E-1,-2.2550353E-1,5.480467E-1,3.5606089E0,-1.1832026E0,-5.306962E-1,2.2727215E0,9.6475214E-1,1.5026355E0,3.1583972E0,1.4167196E-1,-8.366351E-1,1.3696928E0,-1.7583734E-1,-4.480972E-1,5.579281E-1,-6.145525E-1,-1.23014666E-1,-1.1619132E0,-2.7357757E-1,-5.416748E-1,8.200692E-2,1.774847E-1,-7.399333E-1,-1.7744723E-1,4.7806486E-1,-1.2215734E0,-1.7028762E-1,2.2768494E-2,8.1856245E-1,5.593346E-1,-6.452236E-1,-5.969921E-1,1.9639793E-1,4.015751E-2,-1.4069463E0,9.784444E-1,-3.3795607E-1,4.0880716E-1,-1.4510667E-1,3.3357888E-1,-4.9903995E-1,1.9956437E-1,1.1742685E0,-3.0177212E-1,6.632224E-2,2.8868356E-1,3.332499E-2,5.369326E-1,1.5980121E0,9.453083E-1,-3.4555665E-1,-2.6353455E-1,8.329272E-1,-4.2459822E-1,3.589483E-1,-5.6832507E-2,7.667311E-1,2.1316452E-1,1.0343843E0],"categories":[],"categories_nodes":[],"categories_segments":[],"categories_sizes":[],"default_left":[0,0,0,0,0,0,0,0,0,0,0,0,0,0,0,0,0,0,0,0,0,0,0,0,0,0,0,0,0,0,0,0,0,0,0,0,0,0,0,0,0,0,0,0,0,0,0,0,0,0,0,0,0,0,0,0,0,0,0,0,0,0,0,0,0,0,0,0,0,0,0,0,0,0,0,0,0,0,0,0,0,0,0,0,0,0,0,0,0,0,0,0,0,0,0,0,0,0,0,0,0,0,0,0,0,0,0,0,0,0,0],"id":8,"left_children":[1,3,5,7,9,11,13,15,17,19,21,23,25,27,29,31,33,35,-1,37,39,41,43,45,47,49,51,53,55,57,59,61,63,-1,-1,65,-1,67,69,71,73,75,77,79,81,83,85,87,89,91,93,-1,95,97,99,-1,101,103,105,107,109,-1,-1,-1,-1,-1,-1,-1,-1,-1,-1,-1,-1,-1,-1,-1,-1,-1,-1,-1,-1,-1,-1,-1,-1,-1,-1,-1,-1,-1,-1,-1,-1,-1,-1,-1,-1,-1,-1,-1,-1,-1,-1,-1,-1,-1,-1,-1,-1,-1,-1],"loss_changes":[2.7460443E2,6.1898712E1,9.5690895E1,3.9561203E1,3.409883E1,3.8688236E1,3.734871E1,7.537733E1,4.4705704E1,2.517125E1,2.3578924E1,2.0407022E1,2.684601E1,5.1222267E1,2.0078812E1,6.2704018E1,1.7574921E0,2.7519642E1,0E0,1.6100471E1,2.5638926E1,3.172906E1,2.4992268E1,3.3215405E1,2.7686623E1,3.0444813E1,7.586457E0,7.764704E1,2.638428E1,1.2722031E1,4.6882095E0,2.1407722E1,2.1261848E1,0E0,0E0,1.9069508E1,0E0,2.3235264E1,4.769586E1,2.2040615E1,1.0955097E1,3.1878502E1,3.5494705E1,4.4820168E1,3.2861E1,5.380374E1,6.414271E1,2.1789862E1,2.7023132E1,2.4030838E1,1.1486847E1,0E0,1.964934E0,3.5550926E1,1.8613586E1,0E0,3.107277E1,1.6724209E1,4.857641E1,1.4740049E1,2.5114899E0,0E0,0E0,0E0,0E0,0E0,0E0,0E0,0E0,0E0,0E0,0E0,0E0,0E0,0E0,0E0,0E0,0E0,0E0,0E0,0E0,0E0,0E0,0E0,0E0,0E0,0E0,0E0,0E0,0E0,0E0,0E0,0E0,0E0,0E0,0E0,0E0,0E0,0E0,0E0,0E0,0E0,0E0,0E0,0E0,0E0,0E0,0E0,0E0,0E0,0E0],"parents":[2147483647,0,0,1,1,2,2,3,3,4,4,5,5,6,6,7,7,8,8,9,9,10,10,11,11,12,12,13,13,14,14,15,15,16,16,17,17,19,19,20,20,21,21,22,22,23,23,24,24,25,25,26,26,27,27,28,28,29,29,30,30,31,31,32,32,35,35,37,37,38,38,39,39,40,40,41,41,42,42,43,43,44,44,45,45,46,46,47,47,48,48,49,49,50,50,52,52,53,53,54,54,56,56,57,57,58,58,59,59,60,60],"right_children":[2,4,6,8,10,12,14,16,18,20,22,24,26,28,30,32,34,36,-1,38,40,42,44,46,48,50,52,54,56,58,60,62,64,-1,-1,66,-1,68,70,72,74,76,78,80,82,84,86,88,90,92,94,-1,96,98,100,-1,102,104,106,108,110,-1,-1,-1,-1,-1,-1,-1,-1,-1,-1,-1,-1,-1,-1,-1,-1,-1,-1,-1,-1,-1,-1,-1,-1,-1,-1,-1,-1,-1,-1,-1,-1,-1,-1,-1,-1,-1,-1,-1,-1,-1,-1,-1,-1,-1,-1,-1,-1,-1,-1],"split_conditions":[2.633298E1,4.9E1,1.14E2,2.8171211E1,1.6160723E1,4.6274757E1,2.86E2,2.6934551E1,1.674958E1,2.28E2,3.03E2,3.222687E1,4.898597E1,2.79E2,4.733679E1,2.521193E1,1.3989658E1,4.3E1,-1.2711272E0,2.7754026E1,1.4927166E1,9.4E1,2.3676575E1,3.132753E1,3.2741245E1,3.018846E1,3.6E1,2.7E2,3.0480211E1,1.5993951E1,2.6545195E1,1.7159317E1,2.632025E1,1.7939472E-1,8.8621175E-1,1.2356091E1,-9.779133E-1,2.001156E1,3.1037018E1,1.1069633E1,2.71E2,2.4810465E1,1.06E2,2.2099985E1,3.14E2,2.2090252E1,1E0,2.8094141E1,1.838657E1,9.3E1,1.8E1,-8.0315727E-1,4.916814E1,2.5112337E1,1E0,-1.1832026E0,3.0968687E1,2.95E2,1.786049E1,1E0,2.87E2,1.4167196E-1,-8.366351E-1,1.3696928E0,-1.7583734E-1,-4.480972E-1,5.579281E-1,-6.145525E-1,-1.23014666E-1,-1.1619132E0,-2.7357757E-1,-5.416748E-1,8.200692E-2,1.774847E-1,-7.399333E-1,-1.7744723E-1,4.7806486E-1,-1.2215734E0,-1.7028762E-1,2.2768494E-2,8.1856245E-1,5.593346E-1,-6.452236E-1,-5.969921E-1,1.9639793E-1,4.015751E-2,-1.4069463E0,9.784444E-1,-3.3795607E-1,4.0880716E-1,-1.4510667E-1,3.3357888E-1,-4.9903995E-1,1.9956437E-1,1.1742685E0,-3.0177212E-1,6.632224E-2,2.8868356E-1,3.332499E-2,5.369326E-1,1.5980121E0,9.453083E-1,-3.4555665E-1,-2.6353455E-1,8.329272E-1,-4.2459822E-1,3.589483E-1,-5.6832507E-2,7.667311E-1,2.1316452E-1,1.0343843E0],"split_indices":[0,1,1,3,0,0,1,3,0,1,1,0,0,1,0,0,0,1,0,3,0,1,0,0,0,3,1,1,0,3,3,3,0,0,0,0,0,3,3,0,1,3,1,0,1,3,2,3,3,1,1,0,0,3,2,0,0,1,3,2,1,0,0,0,0,0,0,0,0,0,0,0,0,0,0,0,0,0,0,0,0,0,0,0,0,0,0,0,0,0,0,0,0,0,0,0,0,0,0,0,0,0,0,0,0,0,0,0,0,0,0],"split_type":[0,0,0,0,0,0,0,0,0,0,0,0,0,0,0,0,0,0,0,0,0,0,0,0,0,0,0,0,0,0,0,0,0,0,0,0,0,0,0,0,0,0,0,0,0,0,0,0,0,0,0,0,0,0,0,0,0,0,0,0,0,0,0,0,0,0,0,0,0,0,0,0,0,0,0,0,0,0,0,0,0,0,0,0,0,0,0,0,0,0,0,0,0,0,0,0,0,0,0,0,0,0,0,0,0,0,0,0,0,0,0],"sum_hessian":[8E2,3.31E2,4.69E2,4E1,2.91E2,1.47E2,3.22E2,2.3E1,1.7E1,1.09E2,1.82E2,1.19E2,2.8E1,2.17E2,1.05E2,1.9E1,4E0,7E0,1E1,6.4E1,4.5E1,1.44E2,3.8E1,4E1,7.9E1,2.3E1,5E0,2.04E2,1.3E1,9.2E1,1.3E1,1.7E1,2E0,1E0,3E0,5E0,2E0,4E1,2.4E1,3.8E1,7E0,2.5E1,1.19E2,3E1,8E0,3E1,1E1,4E0,7.5E1,1.7E1,6E0,1E0,4E0,1.96E2,8E0,2E0,1.1E1,8E0,8.4E1,7E0,6E0,2E0,1.5E1,1E0,1E0,2E0,3E0,1.2E1,2.8E1,8E0,1.6E1,5E0,3.3E1,1E0,6E0,1.2E1,1.3E1,2E0,1.17E2,2.2E1,8E0,2E0,6E0,1.2E1,1.8E1,5E0,5E0,3E0,1E0,8E0,6.7E1,1.4E1,3E0,2E0,4E0,1E0,3E0,1E2,9.6E1,5E0,3E0,1E0,1E1,1E0,7E0,7E0,7.7E1,3E0,4E0,1E0,5E0],"tree_param":{"num_deleted":"0","num_feature":"4","num_nodes":"111","size_leaf_vector":"1"}},{"base_weights":[2.0490228E-3,-4.3294227E-1,4.2210913E-1,-1.3059916E0,-2.8744462E-1,1.9884935E-1,9.3184245E-1,-1.728396E0,-4.5924395E-1,-1.8047765E-1,-1.516823E0,2.756252E-1,-1.5707701E0,8.603437E-1,7.3843324E-1,-1.1083686E0,-2.392642E0,8.19002E-1,-9.652722E-1,-3.5656226E-1,1.4328264E0,-1.103955E0,-7.235845E-1,1.891242E-1,1.756601E0,2.4551964E-1,-2.20348E0,7.346131E-1,1.7598315E0,-7.397243E-1,-7.4515283E-1,-4.568036E0,-1.6001978E0,-2.8040633E-1,-2.001432E0,-6.8496716E-1,-1.4997543E-1,-1.5334499E0,1.9290692E0,-1.7078887E0,3.2650012E-1,-5.302058E-1,3.421477E-1,-1.0047188E0,2.5306575E0,-2.2603227E-1,2.4889605E-1,-2.8015509E0,-7.5550365E-1,9.513606E-1,1.4658254E-1,2.2593212E0,4.0888596E-1,3.7291405E-1,-2.8056785E-1,-4.0180695E-1,-1.5593432E0,-1.1548225E0,-1.9104917E-1,6.425438E-1,-2.9370943E-1,-1.1668511E-1,-9.3406665E-1,4.7282377E-1,-2.2914831E-1,3.2400063E-1,-8.1610754E-2,6.399651E-2,-1.2780805E0,1.8933599E-1,7.628945E-1,-3.2341486E-1,-9.0843296E-1,1.1881571E0,-1.2988639E-1,-8.416297E-2,-1.2045565E0,1.2174549E0,7.5740546E-2,1.4295216E-1,-4.97189E-1,1.002553E0,2.184763E-2,-2.1021596E-1,-9.244719E-1,-4.2302057E-1,1.8122864E-1,2.029983E-1,8.2549554E-1,6.6747534E-1,-1.0742437E-1,2.2529002E-1,9.4191897E-1,-4.8399928E-1,3.953319E-1],"categories":[],"categories_nodes":[],"categories_segments":[],"categories_sizes":[],"default_left":[0,0,0,0,0,0,0,0,0,0,0,0,0,0,0,0,0,0,0,0,0,0,0,0,0,0,0,0,0,0,0,0,0,0,0,0,0,0,0,0,0,0,0,0,0,0,0,0,0,0,0,0,0,0,0,0,0,0,0,0,0,0,0,0,0,0,0,0,0,0,0,0,0,0,0,0,0,0,0,0,0,0,0,0,0,0,0,0,0,0,0,0,0,0,0],"id":9,"left_children":[1,3,5,7,9,11,13,15,17,19,21,23,25,27,-1,29,31,-1,33,35,37,-1,39,41,43,45,47,49,51,-1,53,55,57,59,61,63,65,67,69,71,73,75,77,79,81,-1,-1,83,85,87,89,91,93,-1,-1,-1,-1,-1,-1,-1,-1,-1,-1,-1,-1,-1,-1,-1,-1,-1,-1,-1,-1,-1,-1,-1,-1,-1,-1,-1,-1,-1,-1,-1,-1,-1,-1,-1,-1,-1,-1,-1,-1,-1,-1],"loss_changes":[1.4654349E2,4.9673103E1,4.62463E1,1.9235756E1,4.4305733E1,3.9154198E1,1.1443527E1,1.2586548E1,3.4912216E1,8.9427315E1,4.3663815E1,3.47688E1,1.4331213E1,1.2278381E1,0E0,8.516092E0,2.1996185E1,0E0,1.22121315E1,1.909716E1,4.8589916E1,0E0,2.2263283E1,2.8800753E1,3.460386E1,2.959201E0,5.6773453E0,1.3498135E1,8.523163E0,0E0,7.964796E0,1.1716385E0,2.7883999E1,2.2403574E1,1.1341932E1,2.0639347E1,2.6566822E1,2.4724453E1,1.9909409E1,5.882347E0,3.2073364E1,3.8896767E1,7.062445E1,4.656173E0,2.3681732E1,0E0,0E0,1.3703575E0,4.411599E0,3.6712128E1,3.2262516E1,1.0921848E1,1.1315835E1,0E0,0E0,0E0,0E0,0E0,0E0,0E0,0E0,0E0,0E0,0E0,0E0,0E0,0E0,0E0,0E0,0E0,0E0,0E0,0E0,0E0,0E0,0E0,0E0,0E0,0E0,0E0,0E0,0E0,0E0,0E0,0E0,0E0,0E0,0E0,0E0,0E0,0E0,0E0,0E0,0E0,0E0],"parents":[2147483647,0,0,1,1,2,2,3,3,4,4,5,5,6,6,7,7,8,8,9,9,10,10,11,11,12,12,13,13,15,15,16,16,18,18,19,19,20,20,22,22,23,23,24,24,25,25,26,26,27,27,28,28,30,30,31,31,32,32,33,33,34,34,35,35,36,36,37,37,38,38,39,39,40,40,41,41,42,42,43,43,44,44,47,47,48,48,49,49,50,50,51,51,52,52],"right_children":[2,4,6,8,10,12,14,16,18,20,22,24,26,28,-1,30,32,-1,34,36,38,-1,40,42,44,46,48,50,52,-1,54,56,58,60,62,64,66,68,70,72,74,76,78,80,82,-1,-1,84,86,88,90,92,94,-1,-1,-1,-1,-1,-1,-1,-1,-1,-1,-1,-1,-1,-1,-1,-1,-1,-1,-1,-1,-1,-1,-1,-1,-1,-1,-1,-1,-1,-1,-1,-1,-1,-1,-1,-1,-1,-1,-1,-1,-1,-1],"split_conditions":[2.9221088E1,6.1E1,2.62E2,2.3519264E1,2.785011E1,2.56E2,3.7097538E1,1.7557907E1,2.3949722E1,2.633298E1,2.8169405E1,2.39E2,3.2890434E1,4.80833E1,7.3843324E-1,1.026493E1,1.9184032E1,8.19002E-1,3.9E1,1.6160723E1,1.01E2,-1.103955E0,1E0,1.8917164E1,3.0968687E1,3.1644783E1,3.0875961E1,4.3697815E1,2.9947268E1,-7.397243E-1,1.1134716E1,1.753034E1,1.2E1,2.0847807E1,2.5459827E1,1.0153594E1,9.2E1,8.2E1,2.6810604E1,2.8145632E1,2.3238672E1,1.8848719E1,1.9282833E1,2.9679026E1,4.25191E1,-2.2603227E-1,2.4889605E-1,2.58E2,2.58E2,4.2795506E1,1.578903E1,1E0,2.7E2,3.7291405E-1,-2.8056785E-1,-4.0180695E-1,-1.5593432E0,-1.1548225E0,-1.9104917E-1,6.425438E-1,-2.9370943E-1,-1.1668511E-1,-9.3406665E-1,4.7282377E-1,-2.2914831E-1,3.2400063E-1,-8.1610754E-2,6.399651E-2,-1.2780805E0,1.8933599E-1,7.628945E-1,-3.2341486E-1,-9.0843296E-1,1.1881571E0,-1.2988639E-1,-8.416297E-2,-1.2045565E0,1.2174549E0,7.5740546E-2,1.4295216E-1,-4.97189E-1,1.002553E0,2.184763E-2,-2.1021596E-1,-9.244719E-1,-4.2302057E-1,1.8122864E-1,2.029983E-1,8.2549554E-1,6.6747534E-1,-1.0742437E-1,2.2529002E-1,9.4191897E-1,-4.8399928E-1,3.953319E-1],"split_indices":[0,1,1,0,0,1,3,0,0,0,0,1,0,0,0,0,0,0,1,0,1,0,2,3,0,0,3,0,3,0,0,3,1,3,0,0,1,1,0,3,3,3,3,0,0,0,0,1,1,0,3,2,1,0,0,0,0,0,0,0,0,0,0,0,0,0,0,0,0,0,0,0,0,0,0,0,0,0,0,0,0,0,0,0,0,0,0,0,0,0,0,0,0,0,0],"split_type":[0,0,0,0,0,0,0,0,0,0,0,0,0,0,0,0,0,0,0,0,0,0,0,0,0,0,0,0,0,0,0,0,0,0,0,0,0,0,0,0,0,0,0,0,0,0,0,0,0,0,0,0,0,0,0,0,0,0,0,0,0,0,0,0,0,0,0,0,0,0,0,0,0,0,0,0,0,0,0,0,0,0,0,0,0,0,0,0,0,0,0,0,0,0,0],"sum_hessian":[8E2,3.93E2,4.07E2,5.5E1,3.38E2,2.84E2,1.23E2,3.6E1,1.9E1,3.12E2,2.6E1,2.73E2,1.1E1,1.19E2,4E0,2E1,1.6E1,2E0,1.7E1,2.82E2,3E1,6E0,2E1,2.59E2,1.4E1,3E0,8E0,1.06E2,1.3E1,3E0,1.7E1,3E0,1.3E1,1.1E1,6E0,1.08E2,1.74E2,4E0,2.6E1,1E1,1E1,4.5E1,2.14E2,3E0,1.1E1,1E0,2E0,5E0,3E0,7.7E1,2.9E1,9E0,4E0,1E0,1.6E1,1E0,2E0,3E0,1E1,2E0,9E0,3E0,3E0,3E0,1.05E2,1.5E1,1.59E2,3E0,1E0,9E0,1.7E1,8E0,2E0,1E0,9E0,4.3E1,2E0,4E0,2.1E2,1E0,2E0,8E0,3E0,1E0,4E0,2E0,1E0,6.8E1,9E0,5E0,2.4E1,4E0,5E0,1E0,3E0],"tree_param":{"num_deleted":"0","num_feature":"4","num_nodes":"95","size_leaf_vector":"1"}},{"base_weights":[-1.2672659E-3,-2.1363582E-1,4.7038364E-1,-4.006991E-1,2.2488344E-1,4.958313E-2,7.2092766E-1,-2.9434258E-1,-1.1850381E0,8.994807E-1,1.7277953E-1,6.691404E-1,-5.090101E-1,-1.689797E-1,9.1691506E-1,-4.1710415E-1,7.0195717E-1,-1.6056241E0,-2.9608807E-1,-7.1926403E-1,2.1931162E-1,3.5829803E-1,3.0842195E0,-2.51223E0,-3.2769325E-1,-9.0106064E-1,2.73605E-1,2.4639132E0,7.053195E-1,-2.0296118E-1,-1.2398627E0,-1.0100121E0,1.1921494E0,-2.5285752E0,-6.9680685E-1,6.145513E-1,-9.947251E-1,3.730642E-1,-4.1696644E-1,7.886673E-1,-1.8447336E0,1.4066776E0,4.514402E-1,-2.3867227E-2,-9.889805E-1,3.109029E-1,-9.0209395E-1,9.02007E-1,-7.943082E-2,3.9548523E0,1.3229584E0,-8.701426E-1,8.9919883E-1,-1.12721056E-1,5.5885255E-1,-4.53256E-1,4.7590706E-1,2.3587304E-1,-4.9066457E-1,1.0365375E0,1.804048E-1,-8.2351625E-1,7.531929E-2,2.7623263E-1,-3.327604E-1,-6.122684E-1,-9.0898454E-2,-3.1031866E-3,2.7599022E-1,-5.511539E-1,1.2433184E-1,1.3051881E-1,6.422802E-1,-7.898125E-1,4.324671E-1,-5.2938655E-2,2.5608674E-1,-8.0904625E-2,2.596738E-1,6.3200116E-1,-3.3457115E-1,-3.6744055E-1,1.3927191E-1,1.4191945E0,1.1381149E-2,-3.1049195E-1,6.125439E-1,-5.320849E-1,-2.513087E-2,1.6664635E-1,4.541717E-1],"categories":[],"categories_nodes":[],"categories_segments":[],"categories_sizes":[],"default_left":[0,0,0,0,0,0,0,0,0,0,0,0,0,0,0,0,0,0,0,0,0,0,0,0,0,0,0,0,0,0,0,0,0,0,0,0,0,0,0,0,0,0,0,0,0,0,0,0,0,0,0,0,0,0,0,0,0,0,0,0,0,0,0,0,0,0,0,0,0,0,0,0,0,0,0,0,0,0,0,0,0,0,0,0,0,0,0,0,0,0,0],"id":10,"left_children":[1,3,5,7,9,11,13,15,17,-1,19,21,23,25,27,29,31,33,35,-1,37,39,41,43,45,-1,47,49,51,53,55,57,59,61,63,-1,65,67,69,71,73,-1,75,-1,-1,77,79,-1,81,83,85,87,89,-1,-1,-1,-1,-1,-1,-1,-1,-1,-1,-1,-1,-1,-1,-1,-1,-1,-1,-1,-1,-1,-1,-1,-1,-1,-1,-1,-1,-1,-1,-1,-1,-1,-1,-1,-1,-1,-1],"loss_changes":[8.033171E1,4.545317E1,2.621608E1,3.2017998E1,2.3469656E1,3.287216E1,2.7362999E1,4.224421E1,1.672306E1,0E0,2.0140648E1,3.2676826E1,1.7337631E1,3.7203175E1,4.0161407E1,5.366187E1,3.309346E1,2.4240685E1,2.8246004E1,0E0,1.6003916E1,4.0327682E1,1.9007412E1,7.3702087E0,1.7520536E1,0E0,2.532562E1,2.028431E1,3.5603672E1,8.7788536E1,5.0647133E1,1.1398546E1,3.803125E1,9.715179E0,1.2361718E1,0E0,8.789291E0,2.7478533E1,3.854615E1,1.5804426E1,2.1921797E1,0E0,9.082256E-1,0E0,0E0,7.640277E0,1.8381874E1,0E0,1.5513506E1,1.8052887E1,1.9063318E1,9.087499E0,2.0709755E1,0E0,0E0,0E0,0E0,0E0,0E0,0E0,0E0,0E0,0E0,0E0,0E0,0E0,0E0,0E0,0E0,0E0,0E0,0E0,0E0,0E0,0E0,0E0,0E0,0E0,0E0,0E0,0E0,0E0,0E0,0E0,0E0,0E0,0E0,0E0,0E0,0E0,0E0],"parents":[2147483647,0,0,1,1,2,2,3,3,4,4,5,5,6,6,7,7,8,8,10,10,11,11,12,12,13,13,14,14,15,15,16,16,17,17,18,18,20,20,21,21,22,22,23,23,24,24,26,26,27,27,28,28,29,29,30,30,31,31,32,32,33,33,34,34,36,36,37,37,38,38,39,39,40,40,42,42,45,45,46,46,48,48,49,49,50,50,51,51,52,52],"right_children":[2,4,6,8,10,12,14,16,18,-1,20,22,24,26,28,30,32,34,36,-1,38,40,42,44,46,-1,48,50,52,54,56,58,60,62,64,-1,66,68,70,72,74,-1,76,-1,-1,78,80,-1,82,84,86,88,90,-1,-1,-1,-1,-1,-1,-1,-1,-1,-1,-1,-1,-1,-1,-1,-1,-1,-1,-1,-1,-1,-1,-1,-1,-1,-1,-1,-1,-1,-1,-1,-1,-1,-1,-1,-1,-1,-1],"split_conditions":[3.738035E1,2.52E2,2.3578016E1,3.4965565E1,2.53E2,1.9282833E1,7.5E1,3.2893906E1,3.699437E1,8.994807E-1,2.55E2,1.8917164E1,1.9348734E1,2.5797379E1,1.02E2,2.920917E1,5.2E1,1E0,3.721888E1,-7.1926403E-1,3.263756E1,1.838657E1,1E0,4.0131752E1,2.1366032E1,-9.0106064E-1,3.8701824E1,2.6673592E1,1.3E2,2.8109585E1,3.3008663E1,1.4E1,8.8E1,2.37E2,5.2E1,6.145513E-1,1.24E2,2.5550533E1,3.4294003E1,1.7398859E1,4.5095394E1,1.4066776E0,4.3214165E1,-2.3867227E-2,-9.889805E-1,2.02751E1,2.5E1,9.02007E-1,4.2997738E1,4.825114E1,2.7293907E1,3.145675E1,4.590857E1,-1.12721056E-1,5.5885255E-1,-4.53256E-1,4.7590706E-1,2.3587304E-1,-4.9066457E-1,1.0365375E0,1.804048E-1,-8.2351625E-1,7.531929E-2,2.7623263E-1,-3.327604E-1,-6.122684E-1,-9.0898454E-2,-3.1031866E-3,2.7599022E-1,-5.511539E-1,1.2433184E-1,1.3051881E-1,6.422802E-1,-7.898125E-1,4.324671E-1,-5.2938655E-2,2.5608674E-1,-8.0904625E-2,2.596738E-1,6.3200116E-1,-3.3457115E-1,-3.6744055E-1,1.3927191E-1,1.4191945E0,1.1381149E-2,-3.1049195E-1,6.125439E-1,-5.320849E-1,-2.513087E-2,1.6664635E-1,4.541717E-1],"split_indices":[0,1,3,3,1,3,1,3,3,0,1,3,3,3,1,3,1,2,3,0,3,3,2,0,3,0,0,3,1,3,0,1,1,1,1,0,1,3,3,3,0,0,0,0,0,3,1,0,0,0,3,3,0,0,0,0,0,0,0,0,0,0,0,0,0,0,0,0,0,0,0,0,0,0,0,0,0,0,0,0,0,0,0,0,0,0,0,0,0,0,0],"split_type":[0,0,0,0,0,0,0,0,0,0,0,0,0,0,0,0,0,0,0,0,0,0,0,0,0,0,0,0,0,0,0,0,0,0,0,0,0,0,0,0,0,0,0,0,0,0,0,0,0,0,0,0,0,0,0,0,0,0,0,0,0,0,0,0,0,0,0,0,0,0,0,0,0,0,0,0,0,0,0,0,0,0,0,0,0,0,0,0,0,0,0],"sum_hessian":[8E2,5.52E2,2.48E2,3.87E2,1.65E2,9.3E1,1.55E2,3.42E2,4.5E1,2E0,1.63E2,4.4E1,4.9E1,2.8E1,1.27E2,3.05E2,3.7E1,3E1,1.5E1,2E0,1.61E2,4E1,4E0,3E0,4.6E1,3E0,2.5E1,1.4E1,1.13E2,2.43E2,6.2E1,8E0,2.9E1,1.4E1,1.6E1,3E0,1.2E1,1.3E2,3.1E1,3.4E1,6E0,2E0,2E0,1E0,2E0,2.2E1,2.4E1,2E0,2.3E1,5E0,9E0,1.2E1,1.01E2,2.25E2,1.8E1,5.7E1,5E0,2E0,6E0,5E0,2.4E1,1.3E1,1E0,3E0,1.3E1,4E0,8E0,7.7E1,5.3E1,1.1E1,2E1,2.8E1,6E0,5E0,1E0,1E0,1E0,1.1E1,1.1E1,1E0,2.3E1,7E0,1.6E1,4E0,1E0,2E0,7E0,5E0,7E0,6.6E1,3.5E1],"tree_param":{"num_deleted":"0","num_feature":"4","num_nodes":"91","size_leaf_vector":"1"}},{"base_weights":[3.6341809E-3,-3.560926E-1,1.9870979E-1,-2.9920936E-1,-2.5480473E0,-1.3612359E0,2.2264908E-1,-1.1860113E0,-1.6124734E-1,7.2077096E-1,-3.7735784E0,-3.8013688E-1,-2.2473006E0,2.5506744E0,2.0395349E-1,-1.7736031E0,-5.9787816E-1,-2.1426852E-1,1.9422903E0,-1.5656904E0,-5.8853275E-1,-4.1874886E-2,-2.5997773E-1,-1.0199549E0,1.8155193E-1,1.0637655E0,3.1109276E-1,-6.5816426E-1,2.4788146E-1,-7.565539E-1,-3.263744E0,5.3177565E-1,-1.0098811E0,-9.0158933E-1,-1.894979E-1,2.2927012E0,2.8535271E-2,-2.3928453E-1,-2.555523E-2,-8.849745E-2,4.2248346E-2,4.8699784E-1,-2.4246073E0,1.57609E0,2.166668E-1,-7.152506E-1,1.5267595E-2,-1.0785083E0,-1.9140702E-1,-4.3148103E-1,3.6403164E-1,-5.888067E-1,-4.6979826E-2,6.0825723E-1,-6.812026E-2,2.0815574E-1,7.5568515E-1,-1.1611382E0,3.1065774E-1,-8.196215E-1,5.138569E-2,-9.528666E-2,6.977805E-1,-1.7860672E-1,7.889976E-2],"categories":[],"categories_nodes":[],"categories_segments":[],"categories_sizes":[],"default_left":[0,0,0,0,0,0,0,0,0,0,0,0,0,0,0,0,0,0,0,0,0,0,0,0,0,0,0,0,0,0,0,0,0,0,0,0,0,0,0,0,0,0,0,0,0,0,0,0,0,0,0,0,0,0,0,0,0,0,0,0,0,0,0,0,0],"id":11,"left_children":[1,3,5,7,9,11,13,15,17,-1,19,21,23,25,27,29,31,33,35,-1,37,39,-1,-1,-1,-1,-1,41,43,45,47,49,51,-1,53,55,-1,-1,-1,-1,-1,57,59,61,63,-1,-1,-1,-1,-1,-1,-1,-1,-1,-1,-1,-1,-1,-1,-1,-1,-1,-1,-1,-1],"loss_changes":[5.6280067E1,3.4398907E1,1.9721954E1,3.3575977E1,5.1536236E1,6.100257E0,2.1807493E1,1.1726143E1,2.7183865E1,0E0,2.4550262E1,7.864586E-1,1.5207956E1,2.3487988E0,1.9477396E1,2.4810646E1,9.845445E0,1.5677353E1,3.6655445E0,0E0,2.4777973E-1,2.2652335E-1,0E0,0E0,0E0,0E0,0E0,5.1752373E1,1.9807867E1,1.5891865E1,3.7952805E0,9.802698E0,1.1887845E1,0E0,1.9950886E1,6.090927E-2,0E0,0E0,0E0,0E0,0E0,4.2250965E1,8.4494095E0,1.6358662E1,1.8065107E1,0E0,0E0,0E0,0E0,0E0,0E0,0E0,0E0,0E0,0E0,0E0,0E0,0E0,0E0,0E0,0E0,0E0,0E0,0E0,0E0],"parents":[2147483647,0,0,1,1,2,2,3,3,4,4,5,5,6,6,7,7,8,8,10,10,11,11,12,12,13,13,14,14,15,15,16,16,17,17,18,18,20,20,21,21,27,27,28,28,29,29,30,30,31,31,32,32,34,34,35,35,41,41,42,42,43,43,44,44],"right_children":[2,4,6,8,10,12,14,16,18,-1,20,22,24,26,28,30,32,34,36,-1,38,40,-1,-1,-1,-1,-1,42,44,46,48,50,52,-1,54,56,-1,-1,-1,-1,-1,58,60,62,64,-1,-1,-1,-1,-1,-1,-1,-1,-1,-1,-1,-1,-1,-1,-1,-1,-1,-1,-1,-1],"split_conditions":[2.3806162E1,2.3676575E1,7E0,6.1E1,3.6E1,2.7754026E1,8E0,2.6545195E1,2.3366774E1,7.2077096E-1,3.1251192E1,3.5145603E1,3.7001354E1,1.707102E1,2.3E1,2.2401575E1,2.8171211E1,1.5216728E1,3.6483944E1,-1.5656904E0,1.57E2,2.633298E1,-2.5997773E-1,-1.0199549E0,1.8155193E-1,1.0637655E0,3.1109276E-1,1E0,2.7E1,7E0,5.6E1,1.026493E1,3.2330906E1,-9.0158933E-1,1.5647803E1,8.8E1,2.8535271E-2,-2.3928453E-1,-2.555523E-2,-8.849745E-2,4.2248346E-2,1.8700155E1,4.706917E1,1.8547398E1,4.4E1,-7.152506E-1,1.5267595E-2,-1.0785083E0,-1.9140702E-1,-4.3148103E-1,3.6403164E-1,-5.888067E-1,-4.6979826E-2,6.0825723E-1,-6.812026E-2,2.0815574E-1,7.5568515E-1,-1.1611382E0,3.1065774E-1,-8.196215E-1,5.138569E-2,-9.528666E-2,6.977805E-1,-1.7860672E-1,7.889976E-2],"split_indices":[0,0,1,1,1,3,1,3,0,0,3,0,0,3,1,3,3,3,3,0,1,0,0,0,0,0,0,2,1,1,1,0,3,0,3,1,0,0,0,0,0,3,0,3,1,0,0,0,0,0,0,0,0,0,0,0,0,0,0,0,0,0,0,0,0],"split_type":[0,0,0,0,0,0,0,0,0,0,0,0,0,0,0,0,0,0,0,0,0,0,0,0,0,0,0,0,0,0,0,0,0,0,0,0,0,0,0,0,0,0,0,0,0,0,0,0,0,0,0,0,0,0,0,0,0,0,0,0,0,0,0,0,0],"sum_hessian":[8E2,2.81E2,5.19E2,2.75E2,6E0,7E0,5.12E2,3.6E1,2.39E2,1E0,5E0,4E0,3E0,3E0,5.09E2,1.7E1,1.9E1,2.34E2,5E0,3E0,2E0,3E0,1E0,2E0,1E0,1E0,2E0,2.4E1,4.85E2,1.1E1,6E0,5E0,1.4E1,1E0,2.33E2,4E0,1E0,1E0,1E0,1E0,2E0,1.5E1,9E0,1E1,4.75E2,3E0,8E0,5E0,1E0,1E0,4E0,6E0,8E0,3E0,2.3E2,1E0,3E0,1E0,1.4E1,8E0,1E0,3E0,7E0,2.5E1,4.5E2],"tree_param":{"num_deleted":"0","num_feature":"4","num_nodes":"65","size_leaf_vector":"1"}},{"base_weights":[-2.4965038E-3,-2.6044166E-1,1.3739394E-1,-3.6024678E-1,5.305436E-1,8.047196E-2,6.70851E-1,-1.2296809E0,-2.7551723E-1,1.1990843E-2,4.1574154E0,1.1084305E-1,-2.2917604E0,9.709475E-1,-2.75383E-2,6.6055455E-3,-2.4665678E0,-1.8427708E0,-2.1805738E-1,7.414094E-1,-7.1822715E-1,1.4604967E0,3.0370447E-1,5.147057E-2,5.8254945E-1,-1.0003422E0,4.3827096E-1,-5.8134526E-1,1.2490411E0,-7.7430385E-1,3.1476083E-1,6.8669736E-1,-3.2485875E-1,-1.2649124E0,-1.2833434E0,5.8888197E-2,-2.995544E0,4.8300412E-1,-3.9800555E-1,9.644184E-1,-1.12969875E-1,7.6678276E-2,-1.4233541E0,1.01159856E-1,-9.894829E-1,-2.0859528E-2,1.1005021E0,-6.3995785E-1,7.2787666E-1,1.6480669E0,-2.9748154E-1,-1.0172049E0,1.3157607E0,4.687386E-1,-1.7390478E-1,4.0043622E-1,-7.135555E-1,-2.3689166E-1,3.9067042E-1,-2.2202626E-1,-1.0123159E0,1.5400226E0,7.967582E-2,-5.974966E-1,-9.6336395E-2,4.4937516E-3,4.311797E-1,-2.4489118E-1,2.9955482E-1,-3.6754334E-1,7.964293E-1,-4.792044E-1,-3.0809784E-2,1.5562487E-2,3.4079966E-1,-4.3180183E-1,3.171942E-1,-3.3477902E-1,3.2274473E-1,5.2585316E-1,2.5392914E-2,-3.609066E-2,3.1521112E-1,3.728634E-1,1.221029E0,-1.8559961E-1,1.0109558E-1,2.4727966E-1,-7.813122E-1,1.9681016E-1,5.929233E-1],"categories":[],"categories_nodes":[],"categories_segments":[],"categories_sizes":[],"default_left":[0,0,0,0,0,0,0,0,0,0,0,0,0,0,0,0,0,0,0,0,0,0,0,0,0,0,0,0,0,0,0,0,0,0,0,0,0,0,0,0,0,0,0,0,0,0,0,0,0,0,0,0,0,0,0,0,0,0,0,0,0,0,0,0,0,0,0,0,0,0,0,0,0,0,0,0,0,0,0,0,0,0,0,0,0,0,0,0,0,0,0],"id":12,"left_children":[1,3,5,7,9,11,13,15,17,19,21,23,25,27,29,31,33,35,37,39,41,-1,-1,43,45,-1,-1,47,49,-1,51,53,-1,-1,55,57,59,61,63,65,67,69,71,73,75,77,79,-1,81,83,85,87,89,-1,-1,-1,-1,-1,-1,-1,-1,-1,-1,-1,-1,-1,-1,-1,-1,-1,-1,-1,-1,-1,-1,-1,-1,-1,-1,-1,-1,-1,-1,-1,-1,-1,-1,-1,-1,-1,-1],"loss_changes":[2.8939114E1,2.2453442E1,1.5736036E1,1.8151562E1,6.013334E1,3.4188282E1,1.0505951E1,3.3657516E1,2.0310627E1,1.5978903E1,4.0149536E0,1.30209875E1,2.8349058E1,1.5835018E1,1.47972355E1,9.634858E0,1.7363503E1,1.7713854E1,2.8324741E1,2.9669647E0,8.516781E0,0E0,0E0,2.156565E1,1.6274897E1,0E0,0E0,1.3742978E1,1.9003338E1,0E0,2.1337858E1,9.778137E0,0E0,0E0,2.6113304E1,5.2483473E0,1.7749672E0,4.5146408E1,2.1170164E1,5.3657465E0,3.9420762E0,3.0102154E1,1.6742363E0,2.0188839E1,1.9016369E1,3.1223953E1,1.8406876E1,0E0,1.2216623E0,1.8494476E1,1.6349442E0,2.260577E1,2.6260471E0,0E0,0E0,0E0,0E0,0E0,0E0,0E0,0E0,0E0,0E0,0E0,0E0,0E0,0E0,0E0,0E0,0E0,0E0,0E0,0E0,0E0,0E0,0E0,0E0,0E0,0E0,0E0,0E0,0E0,0E0,0E0,0E0,0E0,0E0,0E0,0E0,0E0,0E0],"parents":[2147483647,0,0,1,1,2,2,3,3,4,4,5,5,6,6,7,7,8,8,9,9,10,10,11,11,12,12,13,13,14,14,15,15,16,16,17,17,18,18,19,19,20,20,23,23,24,24,27,27,28,28,30,30,31,31,34,34,35,35,36,36,37,37,38,38,39,39,40,40,41,41,42,42,43,43,44,44,45,45,46,46,48,48,49,49,50,50,51,51,52,52],"right_children":[2,4,6,8,10,12,14,16,18,20,22,24,26,28,30,32,34,36,38,40,42,-1,-1,44,46,-1,-1,48,50,-1,52,54,-1,-1,56,58,60,62,64,66,68,70,72,74,76,78,80,-1,82,84,86,88,90,-1,-1,-1,-1,-1,-1,-1,-1,-1,-1,-1,-1,-1,-1,-1,-1,-1,-1,-1,-1,-1,-1,-1,-1,-1,-1,-1,-1,-1,-1,-1,-1,-1,-1,-1,-1,-1,-1],"split_conditions":[2.3806162E1,3.28E2,3.36E2,1.753034E1,2.2099985E1,3.34E2,3.57E2,1E0,1.0399949E1,1E0,2.299994E1,2.93E2,4.4885426E1,1.786049E1,2.9043493E1,1.7397326E1,1.6122492E1,1.0153594E1,2.2781982E1,3.59E2,3.44E2,1.4604967E0,3.0370447E-1,2.83E2,2.5797379E1,-1.0003422E0,4.3827096E-1,3.455812E1,3.1442268E1,-7.7430385E-1,3.6E2,1.6541967E1,-3.2485875E-1,-1.2649124E0,1.6501032E1,1.38E2,4E0,1.0594556E1,2.2928812E1,2.1801386E1,1.6604738E1,3.37E2,2.0128792E1,2.67E2,4.733679E1,1E0,3.0755836E1,-6.3995785E-1,3.5145603E1,2.9741241E1,4.733679E1,1E0,2.5622387E1,4.687386E-1,-1.7390478E-1,4.0043622E-1,-7.135555E-1,-2.3689166E-1,3.9067042E-1,-2.2202626E-1,-1.0123159E0,1.5400226E0,7.967582E-2,-5.974966E-1,-9.6336395E-2,4.4937516E-3,4.311797E-1,-2.4489118E-1,2.9955482E-1,-3.6754334E-1,7.964293E-1,-4.792044E-1,-3.0809784E-2,1.5562487E-2,3.4079966E-1,-4.3180183E-1,3.171942E-1,-3.3477902E-1,3.2274473E-1,5.2585316E-1,2.5392914E-2,-3.609066E-2,3.1521112E-1,3.728634E-1,1.221029E0,-1.8559961E-1,1.0109558E-1,2.4727966E-1,-7.813122E-1,1.9681016E-1,5.929233E-1],"split_indices":[0,1,1,3,0,1,1,2,0,2,0,1,0,3,0,0,3,0,3,1,1,0,0,1,3,0,0,0,3,0,1,3,0,0,3,1,1,0,3,3,0,1,0,1,0,2,3,0,0,3,0,2,3,0,0,0,0,0,0,0,0,0,0,0,0,0,0,0,0,0,0,0,0,0,0,0,0,0,0,0,0,0,0,0,0,0,0,0,0,0,0],"split_type":[0,0,0,0,0,0,0,0,0,0,0,0,0,0,0,0,0,0,0,0,0,0,0,0,0,0,0,0,0,0,0,0,0,0,0,0,0,0,0,0,0,0,0,0,0,0,0,0,0,0,0,0,0,0,0,0,0,0,0,0,0,0,0,0,0,0,0,0,0,0,0,0,0,0,0,0,0,0,0,0,0,0,0,0,0,0,0,0,0,0,0],"sum_hessian":[8E2,2.81E2,5.19E2,2.5E2,3.1E1,4.7E2,4.9E1,2.1E1,2.29E2,2.8E1,3E0,4.65E2,5E0,3.4E1,1.5E1,1.1E1,1E1,7E0,2.22E2,1.4E1,1.4E1,2E0,1E0,4.14E2,5.1E1,4E0,1E0,5E0,2.9E1,1E0,1.4E1,7E0,4E0,3E0,7E0,3E0,4E0,4.5E1,1.77E2,1.1E1,3E0,7E0,7E0,3.96E2,1.8E1,2.4E1,2.7E1,2E0,3E0,2.3E1,6E0,6E0,8E0,4E0,3E0,2E0,5E0,2E0,1E0,1E0,3E0,1E0,4.4E1,7E0,1.7E2,4E0,7E0,2E0,1E0,5E0,2E0,6E0,1E0,3.79E2,1.7E1,1.5E1,3E0,1.2E1,1.2E1,1.6E1,1.1E1,1E0,2E0,2.1E1,2E0,4E0,2E0,3E0,3E0,5E0,3E0],"tree_param":{"num_deleted":"0","num_feature":"4","num_nodes":"91","size_leaf_vector":"1"}},{"base_weights":[-1.7565109E-4,-9.2050634E-2,2.3689541E-1,-1.4989184E-1,4.0980992E-1,1.8047038E-1,1.7378125E0,-1.2190276E0,-1.2863448E-1,6.6318536E-1,-1.3200288E0,-1.3651171E0,2.384905E-1,3.587583E-1,2.1377041E0,-5.3032684E-1,-1.1126002E0,6.620006E-1,-1.6563442E-1,-3.7565655E-1,8.562163E-1,-5.383969E-1,-2.0289631E-1,-7.0201576E-1,-6.5013E-1,2.1925297E0,1.8013576E-1,1.7535383E-1,-1.3912583E-2,2.4616685E0,7.7682495E-2,-5.766143E-1,-1.16105795E-1,-9.732427E-2,2.8296416E0,-2.7855291E0,-1.3822718E-1,5.358639E-1,-7.131956E-1,1.0951892E0,-3.8593197E-1,1.5198441E-1,-2.9484054E-1,7.727733E-1,4.13435E-2,7.635178E-1,1.5606721E-1,1.8616448E-1,8.3004344E-1,-3.5272166E-1,2.2644654E-1,-4.5667192E-1,5.2779045E-2,1.0446814E0,-6.50259E-2,-9.843172E-1,-1.2051258E-1,-3.623245E-2,-5.358022E-1,-3.552741E-1,3.0597708E-1,3.76989E-1,6.0215544E-2,-2.822094E-1,2.5567323E-1,-5.7462934E-2,1.0662334E-1],"categories":[],"categories_nodes":[],"categories_segments":[],"categories_sizes":[],"default_left":[0,0,0,0,0,0,0,0,0,0,0,0,0,0,0,0,0,0,0,0,0,0,0,0,0,0,0,0,0,0,0,0,0,0,0,0,0,0,0,0,0,0,0,0,0,0,0,0,0,0,0,0,0,0,0,0,0,0,0,0,0,0,0,0,0,0,0],"id":13,"left_children":[1,3,5,7,9,11,13,15,17,19,21,23,25,27,29,31,-1,33,35,37,39,-1,-1,-1,41,43,45,-1,-1,47,-1,-1,49,51,53,55,57,59,-1,61,63,-1,-1,-1,-1,-1,65,-1,-1,-1,-1,-1,-1,-1,-1,-1,-1,-1,-1,-1,-1,-1,-1,-1,-1,-1,-1],"loss_changes":[1.7468307E1,1.6839737E1,1.8656778E1,1.1638502E1,2.7173344E1,1.9785084E1,3.6448593E0,1.5179363E1,1.5028911E1,1.0949665E1,1.2304077E0,4.055192E0,2.355082E1,3.0148897E-1,3.0144825E0,4.9651594E0,0E0,3.8132095E1,3.4655365E1,1.7694921E1,1.3780457E1,0E0,0E0,0E0,2.8068006E0,4.3714504E0,1.1271453E1,0E0,0E0,1.0920849E0,0E0,0E0,8.270382E0,7.276367E0,1.2683796E1,4.5882225E0,1.3702991E1,7.036296E0,0E0,5.2351265E0,6.2968884E0,0E0,0E0,0E0,0E0,0E0,1.4204052E1,0E0,0E0,0E0,0E0,0E0,0E0,0E0,0E0,0E0,0E0,0E0,0E0,0E0,0E0,0E0,0E0,0E0,0E0,0E0,0E0],"parents":[2147483647,0,0,1,1,2,2,3,3,4,4,5,5,6,6,7,7,8,8,9,9,10,10,11,11,12,12,13,13,14,14,15,15,17,17,18,18,19,19,20,20,24,24,25,25,26,26,29,29,32,32,33,33,34,34,35,35,36,36,37,37,39,39,40,40,46,46],"right_children":[2,4,6,8,10,12,14,16,18,20,22,24,26,28,30,32,-1,34,36,38,40,-1,-1,-1,42,44,46,-1,-1,48,-1,-1,50,52,54,56,58,60,-1,62,64,-1,-1,-1,-1,-1,66,-1,-1,-1,-1,-1,-1,-1,-1,-1,-1,-1,-1,-1,-1,-1,-1,-1,-1,-1,-1],"split_conditions":[3.8619064E1,3.28E2,3.7097538E1,1.0399949E1,3.2330906E1,2E1,4.3768375E1,2.14E2,1.5960445E1,1.7254108E1,3.37E2,4.2997738E1,2.5E1,4.0698948E1,2.94E2,1.5216728E1,-1.1126002E0,1.5849176E1,1.6122492E1,1.6280928E1,3.59E2,-5.383969E-1,-2.0289631E-1,-7.0201576E-1,4.4539173E1,4.840704E1,1.5216728E1,1.7535383E-1,-1.3912583E-2,1.8E1,7.7682495E-2,-5.766143E-1,6.1E1,6.4E1,2.32E2,2.03E2,3.839751E1,1.1069633E1,-7.131956E-1,3.0651657E1,2.9043493E1,1.5198441E-1,-2.9484054E-1,7.727733E-1,4.13435E-2,7.635178E-1,2.2853727E1,1.8616448E-1,8.3004344E-1,-3.5272166E-1,2.2644654E-1,-4.5667192E-1,5.2779045E-2,1.0446814E0,-6.50259E-2,-9.843172E-1,-1.2051258E-1,-3.623245E-2,-5.358022E-1,-3.552741E-1,3.0597708E-1,3.76989E-1,6.0215544E-2,-2.822094E-1,2.5567323E-1,-5.7462934E-2,1.0662334E-1],"split_indices":[0,1,3,0,3,1,0,1,3,3,1,0,1,0,1,3,0,3,3,3,1,0,0,0,0,0,3,0,0,1,0,0,1,1,1,1,0,0,0,0,0,0,0,0,0,0,3,0,0,0,0,0,0,0,0,0,0,0,0,0,0,0,0,0,0,0,0],"split_type":[0,0,0,0,0,0,0,0,0,0,0,0,0,0,0,0,0,0,0,0,0,0,0,0,0,0,0,0,0,0,0,0,0,0,0,0,0,0,0,0,0,0,0,0,0,0,0,0,0,0,0,0,0,0,0,0,0,0,0,0,0,0,0,0,0,0,0],"sum_hessian":[8E2,5.77E2,2.23E2,5.18E2,5.9E1,2.16E2,7E0,9E0,5.09E2,5.2E1,7E0,7E0,2.09E2,2E0,5E0,8E0,1E0,2.2E1,4.87E2,8E0,4.4E1,3E0,4E0,2E0,5E0,5E0,2.04E2,1E0,1E0,4E0,1E0,1E0,7E0,1.7E1,5E0,4E0,4.83E2,6E0,2E0,3.7E1,7E0,1E0,4E0,4E0,1E0,1E0,2.03E2,1E0,3E0,3E0,4E0,2E0,1.5E1,4E0,1E0,3E0,1E0,4.79E2,4E0,1E0,5E0,3.1E1,6E0,5E0,2E0,7.4E1,1.29E2],"tree_param":{"num_deleted":"0","num_feature":"4","num_nodes":"67","size_leaf_vector":"1"}},{"base_weights":[-2.585726E-3,-2.909328E-1,4.815362E-2,-1.6856328E-1,-1.136282E0,1.3893986E0,3.4193758E-2,-4.5799664E-1,8.958265E-1,-1.9922245E0,-6.4391875E-1,4.8931733E-1,-9.083462E-3,-2.7698463E-1,9.71425E-2,-2.3021358E-1,-2.593159E0,-1.6899705E0,1.2225677E0,3.3533767E-2,-7.638511E-1,3.4828696E-1,-9.0310746E-1,4.511021E-1,-6.0526484E-1,1.8508173E0,6.531237E-2,-2.1227702E-2,-1.1691338E0,-1.3437378E0,-5.657536E-1,-8.3805037E-1,7.756362E-2,1.8710525E0,-3.4169525E-1,2.5082847E-1,-9.4099335E-2,-5.251208E-1,-4.1096565E-1,-1.2117442E0,1.2312242E0,-4.5601562E-1,-2.0752547E0,2.2822094E0,8.3499275E-2,-7.989824E-1,9.4161525E-2,7.2355784E-2,-1.9662833E-1,-1.2098805E-1,-5.632082E-1,9.4943054E-2,-6.142013E-1,1.2431406E-1,1.0429872E0,-3.5649264E-1,1.7710263E-1,3.8509256E-1,-2.7220216E-1,9.0730107E-1,-5.615347E-1,-2.1710588E-2,5.54681E-1,-7.8578293E-1,-1.07456245E-1,-7.921642E-1,-2.9734457E-1,-4.9582675E-2,7.966383E-1,3.8551427E-2,-9.767533E-4,-4.456341E-1,5.925016E-1,5.3899217E-1,2.1462291E-2],"categories":[],"categories_nodes":[],"categories_segments":[],"categories_sizes":[],"default_left":[0,0,0,0,0,0,0,0,0,0,0,0,0,0,0,0,0,0,0,0,0,0,0,0,0,0,0,0,0,0,0,0,0,0,0,0,0,0,0,0,0,0,0,0,0,0,0,0,0,0,0,0,0,0,0,0,0,0,0,0,0,0,0,0,0,0,0,0,0,0,0,0,0,0,0],"id":14,"left_children":[1,3,5,7,9,11,13,15,17,19,21,-1,-1,23,25,27,29,31,33,-1,-1,35,37,39,41,43,45,47,49,-1,51,-1,-1,53,55,-1,-1,-1,57,59,61,63,65,67,69,71,73,-1,-1,-1,-1,-1,-1,-1,-1,-1,-1,-1,-1,-1,-1,-1,-1,-1,-1,-1,-1,-1,-1,-1,-1,-1,-1,-1,-1],"loss_changes":[1.1733074E1,1.2221859E1,1.2721985E1,3.3065697E1,5.0386887E0,2.4509315E0,1.3268589E1,4.0256737E1,2.149849E1,6.112129E0,3.1433935E0,0E0,0E0,2.7520912E1,3.1305603E1,1.5084205E1,2.8054874E1,7.172988E0,2.194175E1,0E0,0E0,1.2309686E0,3.0335488E0,4.8191963E1,1.6385845E1,7.43351E0,1.3888763E1,1.0809136E1,6.836315E0,0E0,7.183426E0,0E0,0E0,3.364122E1,6.2250357E0,0E0,0E0,0E0,7.052824E0,3.9212585E1,2.0264938E1,1.4510635E1,1.6726856E0,7.747101E0,1.213176E-2,3.721016E1,2.055188E1,0E0,0E0,0E0,0E0,0E0,0E0,0E0,0E0,0E0,0E0,0E0,0E0,0E0,0E0,0E0,0E0,0E0,0E0,0E0,0E0,0E0,0E0,0E0,0E0,0E0,0E0,0E0,0E0],"parents":[2147483647,0,0,1,1,2,2,3,3,4,4,5,5,6,6,7,7,8,8,9,9,10,10,13,13,14,14,15,15,16,16,17,17,18,18,21,21,22,22,23,23,24,24,25,25,26,26,27,27,28,28,30,30,33,33,34,34,38,38,39,39,40,40,41,41,42,42,43,43,44,44,45,45,46,46],"right_children":[2,4,6,8,10,12,14,16,18,20,22,-1,-1,24,26,28,30,32,34,-1,-1,36,38,40,42,44,46,48,50,-1,52,-1,-1,54,56,-1,-1,-1,58,60,62,64,66,68,70,72,74,-1,-1,-1,-1,-1,-1,-1,-1,-1,-1,-1,-1,-1,-1,-1,-1,-1,-1,-1,-1,-1,-1,-1,-1,-1,-1,-1,-1],"split_conditions":[1.6160723E1,3.4965565E1,1.6480688E1,3.1037018E1,3.5451485E1,2.24E2,6E1,2.9008005E1,7E1,1.0735348E1,3.5706253E1,4.8931733E-1,-9.083462E-3,2.2624939E1,6.5E1,1.4631193E1,2.9422314E1,1.1332454E1,3.316142E1,3.3533767E-2,-7.638511E-1,1.3989658E1,1.23E2,1.8700155E1,5.6E1,2.9802149E1,7.7E1,2.6238138E1,9.2E1,-1.3437378E0,1.4927166E1,-8.3805037E-1,7.756362E-2,3.24477E1,3.4733223E1,2.5082847E-1,-9.4099335E-2,-5.251208E-1,1.77E2,8E0,2.8280777E1,2.2853727E1,2.5797379E1,1.5249813E1,3.1711329E1,3.1588333E1,8E1,7.2355784E-2,-1.9662833E-1,-1.2098805E-1,-5.632082E-1,9.4943054E-2,-6.142013E-1,1.2431406E-1,1.0429872E0,-3.5649264E-1,1.7710263E-1,3.8509256E-1,-2.7220216E-1,9.0730107E-1,-5.615347E-1,-2.1710588E-2,5.54681E-1,-7.8578293E-1,-1.07456245E-1,-7.921642E-1,-2.9734457E-1,-4.9582675E-2,7.966383E-1,3.8551427E-2,-9.767533E-4,-4.456341E-1,5.925016E-1,5.3899217E-1,2.1462291E-2],"split_indices":[0,3,0,3,3,1,1,3,1,0,3,0,0,3,1,0,3,0,3,0,0,0,1,3,1,3,1,3,1,0,0,0,0,3,3,0,0,0,1,1,0,3,3,3,0,3,1,0,0,0,0,0,0,0,0,0,0,0,0,0,0,0,0,0,0,0,0,0,0,0,0,0,0,0,0],"split_type":[0,0,0,0,0,0,0,0,0,0,0,0,0,0,0,0,0,0,0,0,0,0,0,0,0,0,0,0,0,0,0,0,0,0,0,0,0,0,0,0,0,0,0,0,0,0,0,0,0,0,0,0,0,0,0,0,0,0,0,0,0,0,0,0,0,0,0,0,0,0,0,0,0,0,0],"sum_hessian":[8E2,1.19E2,6.81E2,1.05E2,1.4E1,6E0,6.75E2,8.3E1,2.2E1,4E0,1E1,5E0,1E0,1.13E2,5.62E2,7.6E1,7E0,2E0,2E1,1E0,3E0,2E0,8E0,3.5E1,7.8E1,9E0,5.53E2,6.3E1,1.3E1,3E0,4E0,1E0,1E0,1.4E1,6E0,1E0,1E0,2E0,6E0,1.1E1,2.4E1,7.2E1,6E0,7E0,2E0,1.7E1,5.36E2,4.5E1,1.8E1,7E0,6E0,3E0,1E0,8E0,6E0,3E0,3E0,1E0,5E0,1E0,1E1,8E0,1.6E1,2E0,7E1,3E0,3E0,1E0,6E0,1E0,1E0,1.4E1,3E0,6E0,5.3E2],"tree_param":{"num_deleted":"0","num_feature":"4","num_nodes":"75","size_leaf_vector":"1"}},{"base_weights":[-5.0075687E-3,-8.1095226E-2,1.6399437E-1,-1.6366503E-1,1.1238778E-1,1.63729E0,1.3937171E-1,-8.089221E-2,-1.2673723E0,7.554299E-1,6.7695566E-2,3.9813425E-2,6.2837374E-1,-7.125601E-1,1.7848983E-1,-1.3759945E-1,8.956817E-1,-1.6676465E0,1.14503585E-1,5.8447677E-1,-8.746492E-2,-1.5860081E0,-1.8676615E-1,6.0061365E-1,1.3841972E-1,-5.5591536E-1,-2.8302647E-2,2.2991512E0,-4.6162537E-1,-7.231879E-2,-2.4601448E0,-2.2185746E-1,1.9108124E-1,-2.930417E-1,1.9495412E0,-7.1597964E-1,2.0973702E-1,-1.4142266E-1,-5.401215E-1,2.1310882E-1,-6.042029E-1,-1.0246243E0,1.8453121E-1,-8.5162304E-2,-3.570343E-1,2.4432752E-2,-1.851617E-1,8.0005175E-1,-1.5150605E-1,8.3041996E-1,-3.1842035E-1,1.6170283E-1,-3.812607E-1,-1.1569662E0,-3.7675682E-1,1.2646352E-1,-1.464283E-1,2.2664373E-1,-1.6215596E-1,2.856584E-1,9.8605865E-1,-1.2101873E-1,-5.8648914E-1,5.0025237E-1,2.4350246E-2,-1.9828904E-1,-4.8060037E-2,7.738552E-2,-5.126713E-1,1.9283971E-1,3.227786E-2],"categories":[],"categories_nodes":[],"categories_segments":[],"categories_sizes":[],"default_left":[0,0,0,0,0,0,0,0,0,0,0,0,0,0,0,0,0,0,0,0,0,0,0,0,0,0,0,0,0,0,0,0,0,0,0,0,0,0,0,0,0,0,0,0,0,0,0,0,0,0,0,0,0,0,0,0,0,0,0,0,0,0,0,0,0,0,0,0,0,0,0],"id":15,"left_children":[1,3,5,7,9,11,13,15,17,-1,19,-1,-1,21,23,25,27,29,31,33,35,37,39,-1,41,43,45,47,49,51,53,55,-1,57,59,61,63,-1,-1,-1,65,67,69,-1,-1,-1,-1,-1,-1,-1,-1,-1,-1,-1,-1,-1,-1,-1,-1,-1,-1,-1,-1,-1,-1,-1,-1,-1,-1,-1,-1],"loss_changes":[1.0313328E1,8.853041E0,8.804651E0,3.5343983E1,1.7677286E1,2.4741344E0,8.3253765E0,2.0170376E1,1.51254425E1,0E0,1.3201301E1,0E0,0E0,4.755578E0,1.6967419E1,1.56664295E1,3.9160126E1,2.6372265E1,1.3713942E0,4.6090332E1,2.3873234E1,1.07138634E-1,3.42516E0,0E0,1.2631168E1,1.1911655E1,1.7694052E1,1.165741E1,2.4246029E1,6.5466704E0,1.8700233E1,1.0622411E0,0E0,6.636013E0,1.6876862E1,1.5090118E1,1.617062E1,0E0,0E0,0E0,4.5324564E-2,8.339585E0,7.828714E0,0E0,0E0,0E0,0E0,0E0,0E0,0E0,0E0,0E0,0E0,0E0,0E0,0E0,0E0,0E0,0E0,0E0,0E0,0E0,0E0,0E0,0E0,0E0,0E0,0E0,0E0,0E0,0E0],"parents":[2147483647,0,0,1,1,2,2,3,3,4,4,5,5,6,6,7,7,8,8,10,10,13,13,14,14,15,15,16,16,17,17,18,18,19,19,20,20,21,21,22,22,24,24,25,25,26,26,27,27,28,28,29,29,30,30,31,31,33,33,34,34,35,35,36,36,40,40,41,41,42,42],"right_children":[2,4,6,8,10,12,14,16,18,-1,20,-1,-1,22,24,26,28,30,32,34,36,38,40,-1,42,44,46,48,50,52,54,56,-1,58,60,62,64,-1,-1,-1,66,68,70,-1,-1,-1,-1,-1,-1,-1,-1,-1,-1,-1,-1,-1,-1,-1,-1,-1,-1,-1,-1,-1,-1,-1,-1,-1,-1,-1,-1],"split_conditions":[3.738035E1,2.52E2,3.7474506E1,2.34E2,2.53E2,2.1045391E1,2.3E1,2.25E2,2.8575796E1,7.554299E-1,2.02751E1,3.9813425E-2,6.2837374E-1,4.2997738E1,2.5E1,1.9348734E1,2.6238138E1,1.7751461E1,1E0,1.8132746E1,2.5550533E1,3.8538876E1,4.6531826E1,6.0061365E-1,4E1,1.8132746E1,3.4733223E1,2.6913725E1,2.27E2,2.46E2,1E0,2.9679026E1,1.9108124E-1,1.5827611E1,2.70204E1,2.4940046E1,2.6224642E1,-1.4142266E-1,-5.401215E-1,2.1310882E-1,4.8025265E1,2.8E1,1.838657E1,-8.5162304E-2,-3.570343E-1,2.4432752E-2,-1.851617E-1,8.0005175E-1,-1.5150605E-1,8.3041996E-1,-3.1842035E-1,1.6170283E-1,-3.812607E-1,-1.1569662E0,-3.7675682E-1,1.2646352E-1,-1.464283E-1,2.2664373E-1,-1.6215596E-1,2.856584E-1,9.8605865E-1,-1.2101873E-1,-5.8648914E-1,5.0025237E-1,2.4350246E-2,-1.9828904E-1,-4.8060037E-2,7.738552E-2,-5.126713E-1,1.9283971E-1,3.227786E-2],"split_indices":[0,1,0,1,1,3,1,1,0,0,3,0,0,0,1,3,3,0,2,3,3,0,0,0,1,3,3,0,1,1,2,0,0,3,0,3,3,0,0,0,0,1,3,0,0,0,0,0,0,0,0,0,0,0,0,0,0,0,0,0,0,0,0,0,0,0,0,0,0,0,0],"split_type":[0,0,0,0,0,0,0,0,0,0,0,0,0,0,0,0,0,0,0,0,0,0,0,0,0,0,0,0,0,0,0,0,0,0,0,0,0,0,0,0,0,0,0,0,0,0,0,0,0,0,0,0,0,0,0,0,0,0,0,0,0,0,0,0,0,0,0,0,0,0,0],"sum_hessian":[8E2,5.52E2,2.48E2,3.87E2,1.65E2,3E0,2.45E2,3.61E2,2.6E1,2E0,1.63E2,1E0,2E0,1E1,2.35E2,3.42E2,1.9E1,2E1,6E0,3.7E1,1.26E2,3E0,7E0,4E0,2.31E2,7E1,2.72E2,9E0,1E1,7E0,1.3E1,4E0,2E0,2.3E1,1.4E1,4E1,8.6E1,1E0,2E0,2E0,5E0,8E0,2.23E2,5E1,2E1,2.3E2,4.2E1,8E0,1E0,1E0,9E0,5E0,2E0,5E0,8E0,1E0,3E0,4E0,1.9E1,9E0,5E0,3.3E1,7E0,6E0,8E1,4E0,1E0,3E0,5E0,3.1E1,1.92E2],"tree_param":{"num_deleted":"0","num_feature":"4","num_nodes":"71","size_leaf_vector":"1"}},{"base_weights":[-1.9718788E-3,-7.627283E-1,1.1546601E-2,-1.164551E0,1.9346276E-1,1.8890624E0,1.9649318E-3,-6.4632964E-1,-8.7428147E-1,7.203574E-1,-2.871174E-1,7.287177E-1,4.0361024E-2,-1.001326E0,1.48914065E-2,-4.5023948E-1,3.103765E-2,6.226416E-2,2.4663354E-1,-8.130578E-2,-7.08309E-1,1.6292976E0,2.3086197E-3,2.148819E-1,-1.3322754E-1,1.1010036E0,-1.2432888E0,4.5970726E-1,1.1215874E0,-1.2013195E0,1.4909034E-2,1.10415176E-1,-5.9668925E-2,5.1394576E-1,-1.1031647E-1,-6.712661E-2,-4.5256445E-1,2.6341683E-1,-1.820532E-1,-8.0417836E-1,6.670933E-2,-1.6322654E-3,1.5925854E-1],"categories":[],"categories_nodes":[],"categories_segments":[],"categories_sizes":[],"default_left":[0,0,0,0,0,0,0,0,0,0,0,0,0,0,0,0,0,0,0,0,0,0,0,0,0,0,0,0,0,0,0,0,0,0,0,0,0,0,0,0,0,0,0],"id":16,"left_children":[1,3,5,7,9,11,13,15,-1,17,-1,-1,-1,19,21,-1,23,-1,-1,25,-1,27,29,31,-1,33,35,37,-1,39,41,-1,-1,-1,-1,-1,-1,-1,-1,-1,-1,-1,-1],"loss_changes":[8.246508E0,5.6043653E0,1.4172198E1,7.1838436E0,3.72044E0,3.4629517E0,1.0195587E1,5.2556834E0,0E0,3.8095713E-2,0E0,0E0,0E0,1.2317585E1,1.5759691E1,0E0,6.1952615E-1,0E0,0E0,1.098563E1,0E0,1.3083619E1,1.1711061E1,3.9009333E-1,0E0,4.2262774E0,7.442174E-1,2.7637951E0,0E0,1.7444233E1,8.02458E0,0E0,0E0,0E0,0E0,0E0,0E0,0E0,0E0,0E0,0E0,0E0,0E0],"parents":[2147483647,0,0,1,1,2,2,3,3,4,4,5,5,6,6,7,7,9,9,13,13,14,14,16,16,19,19,21,21,22,22,23,23,25,25,26,26,27,27,29,29,30,30],"right_children":[2,4,6,8,10,12,14,16,-1,18,-1,-1,-1,20,22,-1,24,-1,-1,26,-1,28,30,32,-1,34,36,38,-1,40,42,-1,-1,-1,-1,-1,-1,-1,-1,-1,-1,-1,-1],"split_conditions":[7E0,3.0875961E1,8E0,2.7754026E1,3.4411865E1,3.109077E1,1.2E1,1.7223013E1,-8.7428147E-1,1.2356091E1,-2.871174E-1,7.287177E-1,4.0361024E-2,1E1,1.5E1,-4.5023948E-1,3.5145603E1,6.226416E-2,2.4663354E-1,1E0,-7.08309E-1,3.1711329E1,1.8E1,4E0,-1.3322754E-1,3.717215E1,2.1960306E1,1.4E1,1.1215874E0,3.091853E1,3.699437E1,1.10415176E-1,-5.9668925E-2,5.1394576E-1,-1.1031647E-1,-6.712661E-2,-4.5256445E-1,2.6341683E-1,-1.820532E-1,-8.0417836E-1,6.670933E-2,-1.6322654E-3,1.5925854E-1],"split_indices":[1,3,1,3,3,0,1,0,0,0,0,0,0,1,1,0,0,0,0,2,0,0,1,1,0,0,0,1,0,0,3,0,0,0,0,0,0,0,0,0,0,0,0],"split_type":[0,0,0,0,0,0,0,0,0,0,0,0,0,0,0,0,0,0,0,0,0,0,0,0,0,0,0,0,0,0,0,0,0,0,0,0,0,0,0,0,0,0,0],"sum_hessian":[8E2,1.3E1,7.87E2,9E0,4E0,3E0,7.84E2,8E0,1E0,3E0,1E0,2E0,1E0,9E0,7.75E2,3E0,5E0,1E0,2E0,6E0,3E0,5E0,7.7E2,4E0,1E0,3E0,3E0,4E0,1E0,7E0,7.63E2,3E0,1E0,2E0,1E0,1E0,2E0,3E0,1E0,3E0,4E0,7.35E2,2.8E1],"tree_param":{"num_deleted":"0","num_feature":"4","num_nodes":"43","size_leaf_vector":"1"}},{"base_weights":[-2.4004162E-3,-2.876239E-2,2.8218913E-1,4.2655334E-1,-5.423445E-2,-1.6368842E-1,6.6018623E-1,1.2658462E-1,2.0552838E0,-9.1298294E-1,-1.0114263E-2,7.1287535E-2,-7.376656E-1,2.734858E0,8.4934235E-2,-1.4235878E-1,2.1792498E0,5.3845215E-1,1.0177895E0,6.746727E-1,-1.0769466E0,2.7286032E-1,-6.689557E-2,-1.5373494E-1,9.895409E-1,1.3606745E0,1.3714818E0,-8.8708E-1,5.437537E-1,-9.3031675E-1,3.3753395E-1,1.7841053E-1,7.527596E-1,4.1861287E-1,-6.369439E-2,-5.150783E-1,-2.5180311E0,6.6396314E-1,-1.6766661E-1,-8.826259E-1,-4.5863464E-2,1.0724436E-1,-1.1191733E0,7.170528E-1,2.483797E-1,-7.662844E-1,-4.180264E-1,1.7256813E0,-3.1633112E-1,1.2622558E-1,-5.8664197E-1,-1.2528071E-1,2.98001E-1,-6.800448E-2,-7.663281E-1,-1.0346677E0,-3.2506922E-1,2.3822363E-1,-6.088661E-1,-9.927078E-2,5.7441E-1,-1.658408E-1,-4.975523E-3,-7.232938E-2,5.2735156E-1,-1.5279771E-1,3.782244E-1,-2.4838258E-2,-2.00896E-1,-5.790596E-2,6.9043684E-1,6.439213E-1,-2.1012785E-1],"categories":[],"categories_nodes":[],"categories_segments":[],"categories_sizes":[],"default_left":[0,0,0,0,0,0,0,0,0,0,0,0,0,0,0,0,0,0,0,0,0,0,0,0,0,0,0,0,0,0,0,0,0,0,0,0,0,0,0,0,0,0,0,0,0,0,0,0,0,0,0,0,0,0,0,0,0,0,0,0,0,0,0,0,0,0,0,0,0,0,0,0,0],"id":17,"left_children":[1,3,5,7,9,11,13,15,17,19,21,23,-1,25,27,29,31,33,-1,-1,35,37,39,41,-1,43,-1,45,47,49,51,-1,-1,-1,-1,53,55,57,59,-1,61,63,-1,-1,65,-1,67,69,71,-1,-1,-1,-1,-1,-1,-1,-1,-1,-1,-1,-1,-1,-1,-1,-1,-1,-1,-1,-1,-1,-1,-1,-1],"loss_changes":[6.0174937E0,8.535939E0,1.1568815E1,1.8793995E1,2.6360912E1,1.7433403E1,4.3925705E1,1.907996E1,1.0344416E1,2.004876E1,1.0671116E1,2.2292742E1,0E0,1.3971756E1,1.3861724E1,1.2036208E1,5.9905434E-1,2.8696594E0,0E0,0E0,2.5423103E1,1.923566E1,3.3305702E1,2.7471058E1,0E0,6.276986E0,0E0,6.7523108E0,2.1893604E1,1.744345E1,1.0319227E1,0E0,0E0,0E0,0E0,1.4124493E1,8.28051E0,2.2289265E1,1.864919E1,0E0,8.154131E0,1.6523018E1,0E0,0E0,3.7104385E0,0E0,7.037375E-1,1.0386885E1,1.3800413E1,0E0,0E0,0E0,0E0,0E0,0E0,0E0,0E0,0E0,0E0,0E0,0E0,0E0,0E0,0E0,0E0,0E0,0E0,0E0,0E0,0E0,0E0,0E0,0E0],"parents":[2147483647,0,0,1,1,2,2,3,3,4,4,5,5,6,6,7,7,8,8,9,9,10,10,11,11,13,13,14,14,15,15,16,16,17,17,20,20,21,21,22,22,23,23,25,25,27,27,28,28,29,29,30,30,35,35,36,36,37,37,38,38,40,40,41,41,44,44,46,46,47,47,48,48],"right_children":[2,4,6,8,10,12,14,16,18,20,22,24,-1,26,28,30,32,34,-1,-1,36,38,40,42,-1,44,-1,46,48,50,52,-1,-1,-1,-1,54,56,58,60,-1,62,64,-1,-1,66,-1,68,70,72,-1,-1,-1,-1,-1,-1,-1,-1,-1,-1,-1,-1,-1,-1,-1,-1,-1,-1,-1,-1,-1,-1,-1,-1],"split_conditions":[4.683586E1,1.5960445E1,2.521399E1,1.5849176E1,1.707102E1,2.5112337E1,2.6224642E1,4.4621574E1,2.4559668E1,8E0,2.0847807E1,2.500372E1,-7.376656E-1,1.73E2,4.80833E1,1.534577E1,1.13E2,1.2490704E1,1.0177895E0,6.746727E-1,1.6708384E1,1E0,2.0894827E1,2.4570307E1,9.895409E-1,2.5465082E1,1.3714818E0,2.638971E1,4.8868652E1,1.14E2,1E0,1.7841053E-1,7.527596E-1,4.1861287E-1,-6.369439E-2,4.2795506E1,1.14E2,4.590857E1,2.0770786E1,-8.826259E-1,1.8E1,4.9337082E1,-1.1191733E0,7.170528E-1,4.8025265E1,-7.662844E-1,1.08E2,2.75391E1,2.638971E1,1.2622558E-1,-5.8664197E-1,-1.2528071E-1,2.98001E-1,-6.800448E-2,-7.663281E-1,-1.0346677E0,-3.2506922E-1,2.3822363E-1,-6.088661E-1,-9.927078E-2,5.7441E-1,-1.658408E-1,-4.975523E-3,-7.232938E-2,5.2735156E-1,-1.5279771E-1,3.782244E-1,-2.4838258E-2,-2.00896E-1,-5.790596E-2,6.9043684E-1,6.439213E-1,-2.1012785E-1],"split_indices":[0,3,3,3,3,3,3,0,0,1,3,3,0,1,0,3,1,0,0,0,3,2,3,3,0,3,0,3,0,1,2,0,0,0,0,0,1,0,3,0,1,0,0,0,0,0,1,3,3,0,0,0,0,0,0,0,0,0,0,0,0,0,0,0,0,0,0,0,0,0,0,0,0],"split_type":[0,0,0,0,0,0,0,0,0,0,0,0,0,0,0,0,0,0,0,0,0,0,0,0,0,0,0,0,0,0,0,0,0,0,0,0,0,0,0,0,0,0,0,0,0,0,0,0,0,0,0,0,0,0,0,0,0,0,0,0,0,0,0,0,0,0,0,0,0,0,0,0,0],"sum_hessian":[8E2,7.33E2,6.7E1,3.8E1,6.95E2,3.1E1,3.6E1,3.3E1,5E0,3.3E1,6.62E2,2.9E1,2E0,7E0,2.9E1,3E1,3E0,3E0,2E0,1E0,3.2E1,1.1E2,5.52E2,2.8E1,1E0,5E0,2E0,9E0,2E1,1.1E1,1.9E1,1E0,2E0,1E0,2E0,2.4E1,8E0,5.8E1,5.2E1,3E0,5.49E2,2.7E1,1E0,2E0,3E0,1E0,8E0,8E0,1.2E1,5E0,6E0,9E0,1E1,2.2E1,2E0,4E0,4E0,5.6E1,2E0,4.9E1,3E0,2.9E1,5.2E2,2.3E1,4E0,2E0,1E0,4E0,4E0,2E0,6E0,1E0,1.1E1],"tree_param":{"num_deleted":"0","num_feature":"4","num_nodes":"73","size_leaf_vector":"1"}},{"base_weights":[2.2198586E-4,-2.0317447E-1,3.6009893E-2,-5.4046094E-2,-5.637992E-1,1.046472E0,2.549326E-2,-2.2798091E-1,1.1525986E0,-1.0730425E-1,-1.1653056E0,1.2602555E0,-3.5434343E-2,-1.162604E0,3.7868164E-2,1.2369904E-2,-9.496844E-1,5.897932E-1,5.97018E-1,2.492618E-1,-5.0550765E-1,-1.7724196E0,-2.1825817E-1,4.1999897E-1,8.4232524E-2,-2.9138374E-1,-1.7431731E0,1.5054286E0,2.0102931E-2,-1.0352793E0,2.795916E-1,-1.0980924E0,-5.957438E-1,7.948546E-1,-1.2684546E-1,-3.3672264E-1,7.153164E-1,-2.7908644E-1,-6.4776504E-1,1.7387009E-1,-1.6674657E-1,-1.1153813E-1,-7.5230603E-3,-5.905104E-1,-1.6013832E-1,1.985193E0,-2.7793837E-1,-7.6356167E-1,3.942165E-2,9.169268E-3,-5.4028875E-1,4.6464026E-1,-6.1415527E-3,1.608485E-2,-3.041541E-1,4.5948796E-2,3.0626965E-1,-2.85324E-1,2.2299807E-1,1.1203766E-3,-1.2670928E-1,1.3134614E-1,-9.269714E-2,2.1174146E-2,6.877595E-1,-6.4107037E-1,-8.467805E-2,4.175324E-1,4.8130294E-3],"categories":[],"categories_nodes":[],"categories_segments":[],"categories_sizes":[],"default_left":[0,0,0,0,0,0,0,0,0,0,0,0,0,0,0,0,0,0,0,0,0,0,0,0,0,0,0,0,0,0,0,0,0,0,0,0,0,0,0,0,0,0,0,0,0,0,0,0,0,0,0,0,0,0,0,0,0,0,0,0,0,0,0,0,0,0,0,0,0],"id":18,"left_children":[1,3,5,7,9,11,13,15,17,19,21,23,-1,25,27,29,31,33,-1,35,-1,37,39,-1,-1,41,43,45,47,49,51,-1,53,55,-1,57,-1,59,-1,61,-1,-1,-1,-1,-1,63,-1,65,67,-1,-1,-1,-1,-1,-1,-1,-1,-1,-1,-1,-1,-1,-1,-1,-1,-1,-1,-1,-1],"loss_changes":[5.8379025E0,6.423055E0,7.2207046E0,1.8312239E1,9.48542E0,1.8916397E0,9.982976E0,1.3194861E1,4.0108805E0,1.2233811E1,8.23764E0,4.2815685E-1,0E0,3.032693E0,1.743768E1,1.6526821E1,1.6047989E1,1.9972589E0,0E0,2.332359E1,0E0,4.5959454E0,1.0232188E0,0E0,0E0,7.6331526E-2,3.8680077E-2,1.1173079E1,1.0067521E1,9.848225E0,1.7931341E1,0E0,4.94135E0,8.589921E-1,0E0,1.0660008E1,0E0,1.2314327E-1,0E0,6.450872E-1,0E0,0E0,0E0,0E0,0E0,3.9572334E0,0E0,9.972685E0,2.0464582E1,0E0,0E0,0E0,0E0,0E0,0E0,0E0,0E0,0E0,0E0,0E0,0E0,0E0,0E0,0E0,0E0,0E0,0E0,0E0,0E0],"parents":[2147483647,0,0,1,1,2,2,3,3,4,4,5,5,6,6,7,7,8,8,9,9,10,10,11,11,13,13,14,14,15,15,16,16,17,17,19,19,21,21,22,22,25,25,26,26,27,27,28,28,29,29,30,30,32,32,33,33,35,35,37,37,39,39,45,45,47,47,48,48],"right_children":[2,4,6,8,10,12,14,16,18,20,22,24,-1,26,28,30,32,34,-1,36,-1,38,40,-1,-1,42,44,46,48,50,52,-1,54,56,-1,58,-1,60,-1,62,-1,-1,-1,-1,-1,64,-1,66,68,-1,-1,-1,-1,-1,-1,-1,-1,-1,-1,-1,-1,-1,-1,-1,-1,-1,-1,-1,-1],"split_conditions":[1.6160723E1,1.4382856E1,1.6480688E1,1.3732212E1,1.84E2,2.24E2,1.6709759E1,1.2656841E1,1.4245549E1,3.316142E1,3.1037018E1,3.0668604E1,-3.5434343E-2,3.0141872E1,1.7020275E1,8.7E1,1.707102E1,3.24E2,5.97018E-1,2.9947268E1,-5.0550765E-1,1.7159317E1,1E0,4.1999897E-1,8.4232524E-2,2.47E2,1E0,3.5994984E1,1.7397326E1,4.7E1,1.27E2,-1.0980924E0,2.2928812E1,7E1,-1.2684546E-1,1.22E2,7.153164E-1,1.4631193E1,-6.4776504E-1,2.71E2,-1.6674657E-1,-1.1153813E-1,-7.5230603E-3,-5.905104E-1,-1.6013832E-1,1.6994474E1,-2.7793837E-1,1.06E2,1.7875816E1,9.169268E-3,-5.4028875E-1,4.6464026E-1,-6.1415527E-3,1.608485E-2,-3.041541E-1,4.5948796E-2,3.0626965E-1,-2.85324E-1,2.2299807E-1,1.1203766E-3,-1.2670928E-1,1.3134614E-1,-9.269714E-2,2.1174146E-2,6.877595E-1,-6.4107037E-1,-8.467805E-2,4.175324E-1,4.8130294E-3],"split_indices":[0,0,0,0,1,1,0,0,0,3,3,3,0,3,0,1,3,1,0,3,0,3,2,0,0,1,2,3,0,1,1,0,3,1,0,1,0,0,0,1,0,0,0,0,0,3,0,1,0,0,0,0,0,0,0,0,0,0,0,0,0,0,0,0,0,0,0,0,0],"split_type":[0,0,0,0,0,0,0,0,0,0,0,0,0,0,0,0,0,0,0,0,0,0,0,0,0,0,0,0,0,0,0,0,0,0,0,0,0,0,0,0,0,0,0,0,0,0,0,0,0,0,0,0,0,0,0,0,0,0,0,0,0,0,0,0,0,0,0,0,0],"sum_hessian":[8E2,1.19E2,6.81E2,8.5E1,3.4E1,6E0,6.75E2,7.5E1,1E1,2E1,1.4E1,5E0,1E0,6E0,6.69E2,5.7E1,1.8E1,7E0,3E0,1.7E1,3E0,8E0,6E0,4E0,1E0,3E0,3E0,7E0,6.62E2,1.1E1,4.6E1,1E0,1.7E1,6E0,1E0,1.4E1,3E0,2E0,6E0,3E0,3E0,2E0,1E0,2E0,1E0,6E0,1E0,1.5E1,6.47E2,5E0,6E0,8E0,3.8E1,7E0,1E1,2E0,4E0,9E0,5E0,1E0,1E0,2E0,1E0,1E0,5E0,3E0,1.2E1,1E1,6.37E2],"tree_param":{"num_deleted":"0","num_feature":"4","num_nodes":"69","size_leaf_vector":"1"}},{"base_weights":[-1.9219591E-3,-1.0978022E-1,5.2821748E-2,-3.631824E-1,4.1416243E-2,2.1683584E-1,-7.76838E-2,2.7078575E-1,-9.657828E-1,4.3711085E0,-3.6146216E-2,9.371718E-2,1.7027332E0,-1.44763E0,5.4719625E-3,-3.554701E-1,7.755393E-1,-4.8322085E-1,-2.2410781E0,2.329667E0,-3.6266816E-1,7.735842E-2,-1.8372552E0,1.0056152E0,-8.078142E-3,2.2742503E0,-8.661394E-1,-3.005825E-1,-2.7004857E0,8.415757E-1,-6.879776E-2,2.5858313E-1,-1.1795976E0,5.3549647E-2,1.604485E0,-1.0054655E-1,-9.725319E-1,-5.6252384E-1,-3.1111057E0,-2.4430285E-1,4.061838E-1,-3.0975964E0,4.260521E-2,2.8326368E-1,1.7022156E0,2.2450458E-1,-1.6766392E-1,1.4460043E0,1.2571278E0,5.379158E-1,-2.350221E0,6.131525E-1,-1.336948E0,-1.0543065E0,-1.5092933E0,-5.0442594E-1,2.355798E0,-4.328632E-1,1.2764457E-1,-1.3139054E-1,4.799909E-1,-5.445622E-1,6.8285614E-2,-1.8058231E-1,6.5115213E-1,9.710835E-1,5.3873852E-2,1.6970949E-1,-3.5993484E-1,-5.2336884E-1,1.1387771E-1,-3.037033E-1,6.742344E-2,-3.5915184E-1,-1.3208454E0,-3.432205E-2,-4.803437E-1,-1.5698074E-1,2.538529E-1,-2.9390814E-2,-1.3718754E0,2.1990396E-1,-1.9860135E-1,3.5368213E-1,-2.4267092E-1,7.780461E-1,3.4197807E-2,-5.2107666E-2,3.9008734E-1,-6.542962E-1,-1.7783413E-2,6.10501E-1,-2.9979822E-1,-9.5201916E-1,-1.0558034E-1,-1.4734584E-1,2.7967325E-1,-3.275242E-2,-4.849793E-1,-3.6924363E-3,-5.641388E-1,-3.9922404E-1,1.18186735E-1,-3.3116084E-1,8.436455E-1,-8.254085E-2,-5.048816E-1,3.191588E-1,-1.2684364E-2],"categories":[],"categories_nodes":[],"categories_segments":[],"categories_sizes":[],"default_left":[0,0,0,0,0,0,0,0,0,0,0,0,0,0,0,0,0,0,0,0,0,0,0,0,0,0,0,0,0,0,0,0,0,0,0,0,0,0,0,0,0,0,0,0,0,0,0,0,0,0,0,0,0,0,0,0,0,0,0,0,0,0,0,0,0,0,0,0,0,0,0,0,0,0,0,0,0,0,0,0,0,0,0,0,0,0,0,0,0,0,0,0,0,0,0,0,0,0,0,0,0,0,0,0,0,0,0,0,0],"id":19,"left_children":[1,3,5,7,9,11,13,15,17,19,21,23,25,27,29,31,33,35,37,-1,-1,39,41,43,45,47,49,51,53,55,57,59,61,63,65,67,69,71,73,75,77,79,81,83,85,87,89,91,-1,-1,93,95,97,-1,99,101,103,105,107,-1,-1,-1,-1,-1,-1,-1,-1,-1,-1,-1,-1,-1,-1,-1,-1,-1,-1,-1,-1,-1,-1,-1,-1,-1,-1,-1,-1,-1,-1,-1,-1,-1,-1,-1,-1,-1,-1,-1,-1,-1,-1,-1,-1,-1,-1,-1,-1,-1,-1],"loss_changes":[4.7353525E0,1.035969E1,1.1404171E1,3.8846497E1,5.724766E1,4.3014664E1,3.3841846E1,1.6080923E1,3.0918335E1,6.6210815E1,3.4487076E1,2.0337227E1,2.8396614E1,2.3618725E1,1.750721E1,1.1944362E1,1.6671803E1,7.2048407E0,1.8695366E1,0E0,0E0,1.6916723E1,2.3824627E1,1.0588013E1,7.3867865E0,1.7746597E1,1.99999E1,1.0289388E1,2.451603E0,4.806568E1,1.8578379E1,1.3781565E1,9.357576E0,2.350885E1,2.9658028E1,1.7523003E1,1.8408209E1,2.3522964E0,1.6979317E1,1.4092945E1,3.2750008E1,2.610448E1,2.9175985E0,1.2692388E1,1.5275272E1,3.4924202E1,2.5620186E1,1.931721E1,0E0,0E0,3.817997E0,2.572121E0,1.5402403E0,0E0,2.7550297E0,1.0174825E1,2.0471397E1,